1545 128
121219467 0.06725165 -0.053228516 -0.2750549 0.41258243 -0.21124543 0.089316726 -0.10133457 -0.18531433 -0.095299914 -0.09679053 0.0060339887 0.13225786 0.28183484 -0.23515932 0.13507305 0.059937302 0.34603268 -0.13842313 -0.056333534 -0.20239638 -0.02372576 -0.15575898 -0.09988644 -0.16834113 -0.25976855 -0.34787893 -0.15888609 0.28278914 -0.029638689 -0.2466414 -0.024335455 -0.3028528 -0.21129572 -0.18506305 0.19605806 0.28146324 -0.17052925 -0.058044452 0.13847898 0.16041738 -0.24987084 0.011623585 0.29788804 0.055590495 0.18084435 -0.06944257 -0.07313359 -0.085702434 0.09406046 0.14768624 -0.13598095 0.25045052 -0.43844917 -0.03494529 -0.1525864 -0.11491298 -0.0927064 -0.23980924 -0.368515 0.00678935 -0.32751828 0.2580048 0.16640568 -0.1415308 0.29726645 0.3180918 -0.098694906 -0.44949266 0.17538686 -0.029312598 0.22029415 -0.3066709 0.27097258 -0.035994913 -0.085879564 -0.1317413 0.12330249 -0.041920118 -0.12277747 -0.07851456 0.09812564 -0.212486 -0.1839626 0.07822541 0.076589696 -0.0052615916 -0.18366376 0.18242517 -0.23234127 0.04072477 0.35354573 0.15317756 -0.07854681 -0.1747178 -0.11946663 -0.1214211 -0.18926707 -0.097377144 -0.022053463 -0.2388895 0.25030437 -0.13019952 0.22905862 -0.52067065 0.059531707 0.036543075 -0.07343082 0.18640648 0.07138864 -0.46686217 0.0081747435 0.056586996 -0.23475859 -0.13084362 0.31196064 -0.04633133 -0.43205425 0.13735062 0.18704122 0.32200605 -0.11919494 0.13290611 0.12199872 -0.38093355 -0.2963515 -0.10395359 -0.14428149 -0.07397185
34351681 0.8463448 0.1547401 -0.41508046 0.4200491 0.0070213564 0.13155234 -0.08024759 -0.16163081 0.30108216 0.0685746 -0.08428072 0.0132916365 0.31129873 0.33842742 0.24131069 0.14635395 -0.14528164 0.10061105 -0.26804546 0.31245932 0.16499728 0.36890063 -0.05655481 -0.16671264 -0.23838614 -0.29076168 0.4000577 0.38255236 0.3289058 -0.113038845 0.2534391 0.10732836 0.10993683 -0.027422452 -0.35925937 -0.28188407 0.24061956 -0.01535183 -0.047093 0.3483156 0.06281581 0.49687874 -0.017113967 -0.07175656 0.15237787 -0.08527219 -0.00011838229 0.16006663 -0.06390359 0.25083172 -0.015471422 0.3657972 -0.052414574 -0.01481417 -0.023627257 -0.09183583 0.1336723 -0.1250811 -0.059746757 0.08694378 0.051999304 -0.11229869 0.18388638 -0.25181186 0.16519547 -0.020934803 -0.15554994 -0.26330376 0.03321919 -0.22505999 0.16919872 0.4354427 0.19052306 0.022729293 -0.25864896 -0.3175555 0.45551756 -0.09159023 -0.30382168 0.25664675 0.35255253 -0.08429548 0.040867835 0.07087673 -0.3039448 -0.14586788 -0.26301688 -0.055935986 -0.0824229 0.13933599 0.18839836 -0.00082951784 0.13022806 0.17359518 -0.35614792 0.1956259 -0.44904837 0.17022729 -0.118071795 0.085116416 0.2639907 -0.18716873 -0.20829631 -0.47482428 -0.21994537 0.22344778 -0.10983058 -0.101975776 -0.13526477 -0.20974806 -0.09801517 0.19524549 0.05736252 0.1279135 -0.24340425 0.20913367 0.2433817 0.3410799 -0.09133335 0.2938649 -0.22019328 -0.09076404 0.04691129 0.21124162 -0.1364852 0.07225198 -0.04531023 -0.24408199
40616820 0.6433001 0.14500979 -0.38381356 0.047904402 0.0695997 -0.33008355 -0.55025923 -0.1418026 0.1263501 0.26682588 -0.17205924 0.06720347 0.29594705 0.16026804 0.24255064 -0.26497728 -0.12668328 -0.17383178 0.3017486 0.13401271 -0.14529614 -0.0064102304 -0.17844418 -0.028247923 -0.21738483 0.13669932 -0.0723978 -0.06529355 0.28751615 0.42409822 0.32624778 -0.18435878 -0.25976416 0.07970171 0.08664676 0.03395606 -0.09649845 -0.08476418 0.06842088 0.13665923 -0.36217058 0.11695255 0.32617387 0.027045904 0.2737416 -0.24441719 -0.006506692 -0.34684268 0.057661247 -0.2584125 -0.16095811 0.33980677 0.03925773 0.37615204 0.15581423 -0.32947057 0.20733345 -0.46029365 -0.42891696 0.21870181 0.07754568 0.49999297 0.45331973 -0.21176063 0.43342122 -0.0831307 0.20408204 0.4271122 0.21397853 -0.2267627 0.11048705 0.048688147 -0.0453408 -0.29427958 -0.25934026 -0.19685917 0.1934396 0.20528103 -0.30204967 0.018125346 0.0070706843 -0.24495678 0.03778401 0.10454166 -0.13021398 -0.35794872 -0.3055217 0.020709747 -0.21593846 -0.0860402 -0.14004804 0.014884222 -0.17781122 0.05420005 -0.30763805 0.17478052 -0.08595411 -0.074465215 -0.16139393 -0.3634619 0.02649873 0.0040741176 0.01812042 -0.07152123 0.10088289 -0.10294895 -0.24705593 0.0012498557 0.26971075 -0.13329813 0.19306354 0.28209138 -0.25465074 0.27738962 0.10751265 -0.3087851 -0.11977275 0.36795166 -0.19715211 0.1906812 -0.44554085 0.254131 0.076020665 -0.006372497 -0.38860235 0.04034979 -0.14657588 -0.23309384
432322520 0.22317898 -0.18594232 -0.29211888 0.23396257 0.090632185 0.005468664 -0.057807155 0.03183068 0.24502708 0.3005562 0.2720773 -0.09847509 0.41445634 0.35629034 -0.022051878 0.009940162 0.09912243 0.010168938 0.033604972 0.6478911 -0.17353605 0.2173337 0.13595957 -0.30553687 -0.14322427 -0.19063689 0.024749402 0.10370024 0.57257783 -0.17796819 -0.38835344 -0.030428378 0.10657076 -0.008208803 -0.049677525 -0.018577723 0.34952596 -0.2968844 -0.07144018 0.31092575 -0.038621288 0.04011477 0.41814807 -0.3463233 0.38204065 0.08605717 -0.1600117 0.33142582 0.40182984 0.15650235 -0.21312183 -0.30588582 -0.09225215 0.20068772 0.047704242 0.41149 0.32637826 -0.08823636 -0.12829009 0.16695929 0.41560325 0.19412719 0.16659388 0.123794146 0.2521609 -0.04906674 0.11111219 -0.13855983 0.10181281 -0.24725758 -0.15591617 0.1864511 -0.068698674 -0.12736237 -0.3215148 0.041371062 0.3229355 0.28804684 -0.018182425 0.08972141 0.070889026 -0.084743924 -0.27399248 -0.26715893 0.2582975 0.25461364 -0.35842237 0.28915825 -0.057771355 0.49192157 0.14058161 -0.2672839 -0.18620023 0.5383614 -0.05996442 0.013734686 -0.38452232 0.010045534 -0.18728115 0.057911336 0.8524279 0.12557586 -0.32649595 -0.23736241 -0.23084864 0.029756647 -0.20370567 -0.24811326 -0.1274407 -0.017875945 0.16741253 0.10059986 0.25460845 -0.19202098 -0.1420997 -0.06675491 0.2701393 0.578352 0.43952745 0.21638037 0.2710249 0.109856084 0.20722525 0.44886 0.11579173 -0.20472556 -0.10240482 -0.33377242
1459738746 0.14232796 0.012316279 -0.27179325 -0.22372128 -0.06956342 -0.059494656 0.058426056 0.47985968 0.237036 0.0069328574 0.13398257 -0.24151655 0.0683843 -0.12182029 0.16481894 0.14873612 0.18254143 0.058153603 0.41082832 0.014733454 -0.02463326 -0.015769493 0.12379745 -0.25068906 0.1765168 -0.015368177 0.15291484 0.2028167 -0.07521203 0.09074814 0.026954386 -0.004456626 -0.40305245 -0.55939806 0.22809587 0.0011943234 -0.09468254 -0.33691114 0.24454047 -0.035954695 -0.34981334 0.12341706 -0.094783776 -0.06535588 0.0646909 0.14096825 -0.21186137 0.13899767 0.14737302 -0.0631973 0.0025256593 -0.030722305 -0.31477764 0.19146198 0.14873604 0.1744621 0.4006866 -0.09868439 0.1586746 0.1685282 -0.0455515 0.077740386 0.31300375 -0.51741844 0.41404888 0.17013574 0.1633407 0.1403452 0.26271427 0.0696 -0.1872154 -0.16453575 -0.023349995 -0.13953874 -0.2785702 -0.10741537 0.24216107 -0.1825996 0.11278089 -0.17239943 0.12687148 0.15415983 0.005482137 0.13684854 0.18524423 0.2911038 0.038820084 0.3608962 0.30566704 0.3280293 0.36587155 -0.1710988 -0.4400484 0.28834558 -0.01632665 0.07235303 -0.44152838 -0.25114283 -0.08276991 -0.1015902 0.4689664 0.021401657 -0.26777172 -0.26737624 0.14943635 0.40252003 0.10053964 -0.055640534 0.10610593 -0.163272 -0.09022202 -0.23135154 0.240707 0.09445921 -0.2492429 0.085888 -0.11258562 0.093355395 0.34970236 0.42592725 0.06581715 0.40498745 -0.12789749 -0.24975368 -0.14419265 -0.33845937 -0.107568555 -0.13421696
4858246662 0.35091686 0.107347935 -0.05363313 0.19687976 -0.19587998 0.27700743 -0.06149671 -0.33257398 0.08913679 0.03051112 -0.21618764 0.02020538 -0.14477913 0.11587498 0.26599678 0.51046085 -0.15895888 -0.20139028 0.17652056 0.381139 -0.17832144 -0.2711674 -0.11025515 -7.397527e-05 0.2901257 0.0052125133 0.037335165 0.3895829 0.010474453 -0.32709783 0.37152696 0.027408633 -0.35076836 -0.28216505 -0.035840288 -0.06209371 0.2154267 0.015993228 0.051766004 0.33723146 -0.17349952 0.06366385 0.2220933 0.16377491 0.32156518 -0.2952004 0.13429734 -0.085519776 0.5743053 -0.16413733 0.14426412 0.38150868 -0.30438623 0.2994143 -0.14281397 -0.41172618 0.019141275 -0.20385665 -0.08780565 0.35607818 -0.38236785 0.16892208 -0.36645994 -0.29006732 0.309394 -0.060887415 -0.024389887 -0.2651755 0.35111886 -0.391888 0.048431855 -0.053862132 0.009765984 -0.07583031 -0.32269296 -0.01901066 0.34291404 -0.07538436 0.007960963 0.19572762 0.12836911 -0.26658654 0.1933622 0.3214345 0.28107634 -0.21449423 -0.21546896 0.22298177 -0.21147393 -0.0725928 0.15217398 -0.0014943084 -0.37023404 -0.21271536 -0.12937362 -0.5057412 0.029230405 0.1254666 -0.15106441 -0.11626885 0.2137174 -0.07155846 -0.4996656 -0.1506449 -0.05561755 -0.11282664 -0.23328456 -0.15311404 0.029299965 -0.55996394 0.15049669 -0.23553047 -0.6052828 -0.16665183 0.35795307 -0.09953607 -0.350711 0.10692301 0.3899195 0.17918338 -0.13439162 0.24078007 0.40444133 -0.38031632 -0.108053155 0.058436316 -0.2981323 -0.10181011
246194416 0.36050972 0.24378255 -0.5414609 0.110804275 0.09663007 -0.2635494 -0.0008171506 -0.23777847 0.016318368 0.26903084 0.058855418 -0.17239018 0.1932949 -0.08083682 0.42161483 0.016023297 0.086297 0.118693024 0.092007376 -0.011061399 -0.291274 0.39422172 0.0057410197 -0.07100199 0.2625395 0.32956576 -0.26195827 0.5460377 0.2533206 -0.054913107 0.09566601 0.31322017 -0.09865237 0.02122241 0.054007955 -0.11436543 0.085938096 0.24368304 -0.009333998 0.074978895 -0.016634054 0.06961323 0.12860017 -0.37695116 -0.02605345 -0.13439074 -0.23815633 -0.12883644 0.43566325 -0.057767287 0.031388566 -0.17122409 0.23728795 0.10824277 0.099531375 -0.34912705 -0.008763934 -0.46857888 -0.332117 0.48525375 0.057840817 0.27407247 0.10214999 -0.23840319 0.33506835 0.3056766 -0.1555007 0.46023512 -0.19836779 0.080783956 0.1643974 0.14774716 0.0026137016 0.09348089 -0.18146548 -0.2956705 0.5761126 0.038562756 -0.06516405 0.3194219 0.13795593 -0.2778821 0.025142206 0.35946694 -0.25070572 -0.5227334 -0.43414986 0.10895903 0.10747065 -0.18560648 0.28071508 0.21715839 -0.11512198 -0.17567618 -0.16973105 0.5438183 0.13441928 -0.26117915 -0.35476267 -0.03580435 0.321449 -0.29336584 -0.015506329 -0.32443345 0.11417086 0.120973796 -0.16677545 0.19928318 -0.09610102 0.29265723 0.0076697287 0.2620628 -0.40870225 0.48927018 0.08936668 -0.105153725 -0.2262477 0.41812268 -0.18560517 0.44333053 -0.005484793 0.07120279 -0.10897181 -0.13773176 -0.047233652 -0.020407896 0.25655603 -0.12666264
2732668863 0.2932784 0.2107538 -0.20682442 -0.21664889 -0.1963658 -0.14620948 -0.04522065 0.2531356 0.06779276 0.18151325 0.33987176 -0.27951446 -0.091492385 -0.10165587 -0.12388955 -0.08491835 0.09932717 -0.23973529 0.26208505 -0.03797557 0.09977118 -0.27657825 0.3463571 -0.52737755 -0.13920455 0.11738196 -0.0337901 0.24303623 0.12456731 -0.08368774 -0.02851945 0.028545354 0.06452164 -0.3226482 0.09202338 0.06393841 -0.19266197 -0.087471955 0.0028103287 0.35087854 -0.35063702 0.17588592 -0.041149367 -0.40222842 0.29567495 -0.06827803 -0.13396335 -0.124413736 0.17265004 0.007197602 -0.008387124 0.020791939 -0.52006334 0.2585675 -0.11725029 -0.08912214 0.3990372 -0.40290073 -0.4163694 -0.00844921 0.11936107 0.10435513 0.2678512 0.15272163 0.28519103 0.10457896 -0.18631645 -0.35591337 0.00161304 -0.12397568 -0.06929189 0.13604942 -0.2171135 0.055446323 -0.032068964 0.0695224 0.14405493 0.30641815 0.14761728 -0.31100255 0.05004257 -0.08010972 -0.20310855 -0.08920747 0.033116747 -0.1646783 -0.45171446 0.21570604 -0.11912408 -0.036903035 0.1720313 0.403637 0.31308648 -0.49193314 0.12179384 0.064091824 0.027836664 0.39345595 0.20985548 -0.15445527 0.26149473 -0.29947484 -0.24345407 -0.7482815 0.17957902 0.18829368 0.038120884 -0.026610259 0.111181885 -0.35778555 -0.032214418 0.04188715 -0.36898282 0.36391202 -0.21403576 -0.088934705 -0.241413 -0.1624963 0.19938935 0.48120457 -0.047432125 0.07944269 0.19615705 -0.38420984 -0.45168838 -0.311869 0.2310482 -0.09769606
4369558574 -0.19836539 0.044991642 -0.06453557 -0.045382734 -0.33879375 0.14101413 -0.14772648 -0.112638324 -0.13939896 -0.023326809 0.099620126 -0.1326206 0.16720533 -0.21154915 0.11501576 0.6637135 0.15506443 -0.025312377 -0.14472435 -0.16325204 0.27425674 -0.0064106346 -0.019709485 0.021183208 0.25420925 0.20037755 0.20505281 0.14153431 -0.19487523 0.035819713 0.46844193 0.2092071 0.21780632 0.0936245 -0.11892909 0.23082319 0.0029701688 -0.2772418 0.027109357 0.04583224 -0.4177916 0.33314273 0.40974215 0.20577286 0.3040992 -0.048623122 -0.27735916 -0.16411637 0.016713394 -0.13875884 -0.21952166 0.19442023 -0.36701986 -0.052911587 -0.40071768 -0.24109018 0.26441956 -0.12962653 -0.37946486 0.0038260045 -0.0023705254 0.10534929 0.074679025 -0.51997364 0.62676644 -0.09502998 0.056774676 0.28811398 0.31384712 0.04436142 -0.46201262 0.10302949 0.28190988 -0.45771512 0.19494018 -0.09859736 -0.018452378 -0.075637236 0.27353883 -0.06733116 -0.072503984 -0.042324975 -0.14694226 -0.0795537 -0.17347836 0.10082398 -0.10826607 0.27681217 -0.11275334 0.22632304 0.37758902 0.20985818 -0.37975547 0.3031567 -0.31350392 0.35261098 -0.33187318 0.19913836 0.18425298 0.13878846 0.25944948 -0.030367333 -0.26042876 -0.38113526 0.05553275 -0.72995585 0.083114065 0.33439547 0.18269409 -0.18928203 -0.082067706 -0.30079532 -0.031303033 0.09502203 0.077844486 -0.09873797 -0.28795335 0.34841055 0.1148599 0.13208677 0.45787126 0.4206744 -0.09393449 -0.10630743 0.019136349 -0.12195061 -0.35213083 -0.2361554
99703383 0.68182385 -0.06991189 -0.39512002 0.33708388 -0.01970118 0.14221919 0.17723323 -0.047528554 0.13810179 0.027037457 -0.06307193 -0.08992297 0.3955711 0.2793859 0.19858107 0.07154269 0.107531525 -0.049641002 0.24958839 0.226908 -0.16317627 -0.09276024 0.32351813 0.052909747 -0.004247126 0.20041995 0.18211281 0.5927494 0.50797415 -0.11622866 -0.28957945 0.016569493 -0.15569863 0.25036582 0.1733188 -0.003141262 0.47094396 0.055707835 0.14309022 0.30106178 0.020787975 0.30694488 0.091401726 -0.3032902 0.13252282 0.07223685 -0.46591255 -0.12018795 0.40210694 0.13813643 0.05819734 0.064913735 0.023469247 -0.15968613 -0.22290522 0.09267644 -0.07939556 -0.09266213 -0.12255485 -0.0057414332 -0.24577157 -0.08737869 0.2407397 -0.38653043 -0.12903553 -0.3715522 0.21660031 -0.16186546 0.019607408 -0.44226512 -0.05859369 0.28750178 0.16885239 -0.17216563 0.07418101 -0.38905975 0.36520264 0.007702608 0.014954881 0.27364415 -0.004371013 0.13712366 -0.25300482 0.0047769374 0.06952523 -0.3651358 -0.24805203 -0.0064505795 0.25104293 -0.1134383 -0.09168481 -0.37405 -0.47350672 0.102509595 0.20130675 0.23306644 -0.36413807 0.4336721 -0.20128818 0.03028168 0.31423205 0.0001362249 -0.029178696 -0.48531282 0.016686767 0.41687834 -0.023730747 -0.04898229 -0.2324015 -0.22182252 0.37772542 0.23476067 -0.23775625 0.21603495 -0.3731918 0.282278 0.1252541 0.08787226 0.1382508 0.38062763 -0.083968036 0.3848048 0.06924252 -0.12060835 0.13013102 -0.11390663 0.20479293 -0.23583809
900245784842477569 0.43179595 0.08353531 -0.0571701 0.15469289 -0.07770102 -0.10023794 0.17087987 0.020837964 0.3693128 0.08277063 0.25079682 -0.5354936 0.04370763 0.07909252 0.32643422 0.14184484 0.5083338 -0.04680428 0.13467486 0.033482037 0.1805804 -0.17723916 0.10688939 -0.006518447 -0.2852214 -0.059272226 0.15230428 0.020967184 0.057649057 -0.06842423 -0.15606128 -0.05973517 0.2121524 -0.10333829 -0.11097102 0.14723876 -0.5492256 -0.33362138 0.083227254 -0.24214259 0.01041876 0.056540266 0.3830984 -0.26723558 0.27028063 -0.24176261 0.22998972 -0.2026646 0.21158502 0.0018061916 0.010424695 -0.113356166 -0.11080933 0.6283923 -0.07019908 -0.010714583 0.22926955 0.040158324 -0.38325343 0.11850786 -0.1729327 0.24100117 0.13483472 -0.31233412 -0.14537273 0.15467839 -0.069016755 -0.43320954 -0.018504221 0.17356768 -0.04246424 0.17742757 0.18190715 -0.18335848 0.13892147 -0.16326346 0.18106738 0.19247982 0.4404043 -0.38823345 0.002078792 -0.1940548 0.14746185 0.24233875 -0.04215762 0.28060108 -0.13960125 0.1501245 -0.100779705 0.39783072 0.55367744 -0.067565925 -0.1003339 -0.081981584 -0.099396825 0.065014675 -0.2747001 0.27024147 0.03278079 -0.031441882 0.32869384 0.08704309 0.07011196 -0.64350384 -0.09972309 -0.24498561 0.05674992 -0.26361462 -0.19801807 0.08737163 0.15391146 0.010071779 -0.35126638 -0.09200223 -0.092959166 0.04018183 -0.50488377 0.36545068 -0.037789535 0.39482522 0.20088953 0.25094727 -0.066993095 -0.00087317335 -0.47887087 -0.18050283 0.021730803 -0.10803228
879197704865234944 0.0819099 0.26049316 -0.1645312 0.09151828 0.06958361 -0.08772722 -0.2716091 -0.2811108 0.067362994 -0.030237561 -0.053420972 -0.20523846 0.34345102 0.30336735 0.2430793 -0.12896727 0.056989487 -0.31303313 0.45099443 -0.20417604 -0.1705691 0.0118895965 0.25463378 -0.09735835 -0.32533607 0.046667174 -0.41373205 0.18288824 0.33241385 0.23069644 0.47850809 0.0071667945 -0.014693005 -0.011945098 0.05700244 -0.0129061565 -0.32941523 -0.40029216 -0.08109424 -0.29753077 -0.0674136 0.46308208 0.30473468 -0.39372766 -0.0068774163 -0.15692247 0.03529052 -0.28734794 0.25428718 -0.09919266 -0.1627646 0.0557709 0.0011462522 0.074322335 -0.19084829 -0.23336005 0.30746993 -0.4717639 -0.12029165 0.39965722 0.04874899 0.03892403 0.2586866 -0.4118617 0.42731917 0.0969181 -0.33856902 -0.20290291 0.31439903 -0.12260394 0.06848064 0.17620687 -0.04441116 -0.1427823 -0.36552444 -0.20373996 0.12379669 -0.23580101 0.008092759 0.19027981 0.07657738 -0.3495448 0.48499575 0.33510447 0.21624501 -0.17275162 -0.44193557 0.25938436 -0.27476117 -0.1626545 -0.050310034 0.041595593 -0.24041192 -0.23291016 -0.499962 0.1909575 -0.12745038 0.27503297 -0.072988614 -0.52793324 -0.24126722 -0.09371482 -0.2905868 -0.05352935 -0.26665407 -0.44359678 -0.14320005 0.118845984 0.20596938 0.17408907 -0.08082656 0.16306579 0.056422163 0.022695905 0.30949238 0.035048 0.10699296 0.047229372 0.20259391 0.15120026 -0.005713913 0.039701536 0.035331063 -0.39650613 -0.5795226 0.28490907 0.1334148 -0.029607171
901366538602561536 0.21398178 0.18112956 -0.51471573 0.03991521 -0.46626735 -0.34604988 -0.38102442 -0.08561901 -0.129281 0.11275907 -0.03886067 -0.22961824 -0.0875478 -0.24847627 0.26160753 0.48823392 0.03578133 -0.18753217 0.021643955 0.17652465 0.103427336 -0.31583267 0.20210107 -0.23369144 0.041829724 -0.3383799 -0.12211951 -0.033642855 0.34245178 0.10954821 0.22059883 -0.5389376 -0.22176988 -0.015581097 0.17237185 0.20044942 -0.25292352 -0.41988942 -0.11550487 0.08452889 0.173474 -0.147355 -0.10647462 0.047698796 0.08495573 -0.16478562 0.13599275 -0.17377469 0.3961742 0.13072234 -0.0039903703 0.29030666 -0.030843087 0.16018566 -0.15584555 -0.3348714 0.072928354 -0.65917873 -0.15402511 -0.3067286 -0.11762795 0.34845862 0.23526144 -0.14030734 0.13164783 0.19558907 0.16211626 -0.4105699 0.16756968 -0.1425326 -0.052746955 -0.16808954 0.25785756 -0.28095093 -0.13302937 0.0036324756 0.6387081 -0.16595292 0.2974245 0.31253105 0.00539564 -0.038052637 0.12547472 -0.13289185 -0.12776819 0.23649631 -0.035945628 0.3140397 -0.053875644 0.076716095 0.305357 0.098144785 -0.10352393 -0.25410366 0.2291702 -0.2209649 0.09160418 0.31831893 0.29018798 -0.07481088 0.24376658 0.124443255 -0.050881427 -0.55703926 0.12063006 0.0061550224 0.15849657 0.28202534 0.116598524 -0.09071055 -0.06393618 0.19435595 -0.35081384 0.12242464 -0.06725731 -0.15228455 -0.41787452 -0.28934488 0.6809671 0.4994644 0.13984613 0.6338284 0.1732598 0.071379475 -0.25524986 0.075021416 -0.06666197 0.07149548
3274447458 0.26018643 0.33352473 0.19841063 0.15018909 0.0044890577 -0.4313061 -0.40321586 0.10795213 0.06806848 0.18875942 0.19369684 -0.1326258 0.07876686 0.17597766 0.37132028 -0.14058124 -0.04820825 -0.08906445 0.30173063 0.16795316 -0.40476167 0.3292949 0.27526924 0.12869877 -0.44551328 -0.18874411 -0.1311786 0.022295475 0.15207861 0.16650645 0.118017286 0.04494545 -0.06308022 -0.051097028 0.33540958 -0.21586359 -0.6645501 -0.019594897 -0.16020478 0.14303079 -0.5621161 -0.03832112 -0.083182685 -0.01907341 -0.10106176 0.030522516 -0.4356638 -0.33828822 0.20167857 -0.033223003 -0.051918935 0.08792836 0.06509088 0.27809703 -0.04660993 -0.43741837 0.449626 -0.37573543 -0.32203236 0.03854919 -0.13041931 0.37681577 0.23558089 -0.2687604 0.4298396 -0.17146581 -0.36242247 0.15881144 -0.081188515 0.16499488 -0.13311368 -0.1044517 0.20322376 -0.2597641 -0.3674443 -0.36018583 0.09863942 -0.11056843 0.09461735 0.29838637 -0.28815728 -0.37790725 0.057218853 0.5118492 -0.08285363 -0.3211546 -0.1684221 0.20405594 -0.10000216 0.036691688 0.071774945 -0.07059898 -0.21490054 -0.26847848 0.11381245 0.5197886 -0.22480877 0.25336808 -0.08589311 0.0012425254 0.09925215 -0.22235437 -0.55986494 -0.29993293 0.06114008 -0.28605524 -0.080736265 -0.09354846 0.014003635 -0.030592062 -0.10532137 0.09521511 -0.32845756 0.08404217 0.18917987 0.37281322 -0.16720667 0.3899775 0.002377232 0.6118773 0.22442938 0.06735251 0.112994835 -0.36951706 -0.23784213 -0.31747234 0.34858704 -0.20557472
1228199240 0.12165846 -0.09526491 -0.2959237 0.27945086 -0.055285018 0.018824823 0.14268836 -0.08125231 0.08640573 -0.07822917 0.43339422 0.058192044 0.38567856 0.24609238 0.038866017 0.2720528 -0.043315034 0.18893239 -0.008995456 0.22778027 -0.099827655 0.14923887 0.13869508 -0.078319035 -0.13999495 -0.2136806 -0.26227278 0.2883122 0.4822542 0.19841927 -0.042333066 -0.10558406 0.12359277 -0.19401407 0.42021355 -0.04867237 0.02609699 -0.3508802 0.001040015 0.22565655 0.2546947 0.22682486 0.46538365 -0.15463284 0.5664974 -0.08737336 -0.22770236 0.35728043 0.42590272 0.2897401 0.23037125 -0.33218092 0.05708307 0.12479912 0.038520794 0.23867638 0.20599505 -0.17132412 -0.28410712 0.12241614 -0.013203939 0.41062555 0.17940687 0.10877508 0.5816495 -0.0769691 -0.048836507 -0.1389767 -0.40878287 -0.42451483 0.16370027 0.13500944 0.20334035 -0.39488724 -0.172664 -0.28010786 0.18829462 0.41608387 -0.03800729 0.3123117 0.0020698272 0.08829944 -0.45082396 -0.0634408 0.14596817 -0.43772474 -0.81912845 0.07598562 0.11828618 0.4693582 -0.20563242 0.0727917 -0.25804776 0.3187356 -0.22215314 0.14603618 0.09282555 -0.17533647 0.010885704 0.2520985 0.52052295 -0.08693501 -0.6333623 -0.3684169 -0.13594043 0.07521388 -0.19077705 -0.34427673 0.007850901 0.25962073 -0.16581671 0.3625401 0.012098003 -0.11039552 -0.21340576 0.41473815 0.7100354 0.3208829 0.4091165 0.28402942 0.21720815 0.34048864 -0.13824995 0.13623802 0.039407156 -0.24880487 0.38814086 -0.32855257
853241196910698496 0.5293536 0.06452724 -0.07021668 -0.17527261 -0.44167164 0.30944425 -0.11493101 -0.3873972 -0.0691305 0.027292727 0.30872524 -0.027997743 0.12973091 -0.034248985 -0.16275498 0.25181648 0.44114783 -0.16188657 0.13934647 -0.18084247 -0.3508966 -0.021490587 0.1070801 0.044207737 -0.5270785 -0.029242985 0.13155209 0.22709258 -0.0012419494 0.29163936 0.044843115 -0.10139468 0.10492579 -0.35282075 0.18270509 0.1218951 -0.1696198 -0.18158956 -0.15255307 0.29062364 -0.03350333 -0.1307195 -0.09490977 -0.3613031 -0.15020894 -0.51063776 0.15389049 0.28766987 0.12286456 -0.30939773 -0.35852575 0.3544557 -0.64620304 0.37847826 -0.22620566 -0.36581007 0.15527382 -0.7284722 -0.42092028 -0.08175358 -0.091714285 -0.11638967 0.10274094 -0.0028110452 0.15892501 0.13520767 0.12333599 -0.061162133 0.07831458 0.106688954 0.15764268 -0.05282538 0.04603924 -0.26461872 -0.17707261 -0.08523797 0.29382437 -0.16042489 0.13445677 -0.2152736 -0.30663288 0.27490112 0.3074572 0.10737993 -0.039424766 0.06786248 -0.13705577 0.574057 0.046924938 0.05821441 0.2844853 0.11065043 -0.22062407 0.036178056 0.0013919641 -0.04679876 -0.45366096 0.34444293 -0.2320299 -0.2576524 0.50945294 0.0077312808 -0.3619123 -0.3859178 0.035088893 0.17838739 -0.03723965 0.11258052 -0.21922073 -0.2730599 -0.4733537 -0.1680083 -0.5373728 0.26366028 -0.27731463 -0.04517422 -0.36387572 0.0993854 0.21505047 0.067268275 -0.037803773 -0.146467 0.06256758 -0.42993256 -0.3635642 0.2785043 -0.009139708 0.12653431
592485538 0.38459885 -0.06001306 -0.44603375 0.10872933 -0.055144455 -0.09496278 -0.24987777 -0.039511997 0.022201138 -0.10738508 0.13010004 -0.41049322 0.092677146 0.09608682 0.09897169 0.33498895 0.5207589 0.12374487 -0.0748514 0.26808923 -0.10121248 -0.14190471 0.29377824 0.09824397 0.0060441704 0.06568118 -0.29661494 0.37711462 0.43425623 -0.14843789 -0.11022822 0.18314572 0.18716955 -0.1312836 0.092837244 -0.3870516 0.26703587 0.021810295 -0.2278206 0.17036708 -0.024162997 0.13936472 0.12148396 -0.23310646 0.40534475 -0.17892864 -0.309476 0.0696173 0.6492076 0.38297307 0.1736613 0.22273274 -0.05006933 -0.14337586 -0.5884684 0.22922207 -0.12640071 0.2962769 -0.3270308 0.18891151 0.15847403 0.18397331 0.22453569 0.06417128 0.2692736 -0.16563766 0.35993055 -0.027386604 0.02270783 -0.0540792 -0.05734032 -0.12041644 0.27381048 -0.017110951 0.12209636 0.12117928 0.38725954 0.33732826 -0.10608305 -0.078502804 -0.049986944 0.17403618 -0.10596009 -0.15800801 0.16804428 -0.16079268 0.10235265 0.1544269 0.029833313 0.124230325 0.004316316 -0.009149141 -0.15932722 0.30716014 -0.25886598 0.30579242 -0.047304295 0.0046326756 -0.1835536 0.23476186 0.22571035 -0.20718609 -0.0018881 -0.58565944 -0.22887889 0.19934039 -0.12086979 -0.04069567 -0.15973574 0.18156977 -0.07144434 -0.25955707 0.14942676 0.20416456 -0.0542734 0.55089194 0.16062516 0.49305353 0.41945288 0.46947157 -0.25633803 0.011590539 -0.24917372 0.36170515 -0.5696351 -0.15721036 0.25158256 -0.12658213
32337662 0.28506178 -0.2636923 -0.10773036 0.29224327 0.1732654 -0.22658725 -0.020787697 -0.15880454 0.44263664 0.0021230357 0.055291165 -0.20320113 0.20580773 0.07970386 0.03258068 0.015553101 0.36110952 0.07286043 0.0043141586 0.32081395 0.2606522 0.21688773 0.19978106 -0.045907654 -0.25748506 0.22651441 0.058271326 0.3172797 0.2770428 -0.2600702 -0.5165898 0.16417909 0.119531915 0.28852463 0.29529223 -0.05154413 0.2005368 0.08328475 0.06867297 0.1619153 -0.04632036 0.39037213 0.0940012 -0.5611424 0.5949944 0.15390967 -0.40924874 -0.14286861 0.13795993 0.2631107 0.27202925 0.1454439 -0.01987958 -0.2955301 -0.21566421 0.1647041 -0.058901254 -0.0033310228 -0.23757823 0.4096207 0.19970888 0.1945743 0.1642061 -0.17911848 -0.10529088 -0.044858836 0.34206057 -0.17494905 -0.27036744 -0.051070757 0.16307305 0.39505732 0.3305415 -0.36637694 0.01295315 -0.07312637 0.5422131 0.21482822 -0.38769087 -0.06430257 0.0053433096 -0.28471363 0.031184468 -0.15439549 0.3002393 -0.15477617 -0.64385295 0.44970542 0.16012587 0.06684256 0.17351139 0.013087681 -0.45068493 0.18185762 -0.14263563 0.22350487 -0.14891273 9.323526e-05 -0.01350839 0.091058746 0.44492516 -0.026743535 -0.2630179 -0.7299351 -0.23997828 -0.05612676 -0.0615364 -0.16989745 0.019616297 -0.091726914 0.16751508 0.07370851 0.075602 0.0047277887 0.16612653 0.2894775 0.32462558 0.5209779 0.0954837 0.38869482 0.07136377 -0.10564525 -0.05623486 0.70144427 0.18864775 -0.17909749 0.03369404 -0.46224567
1618450459 0.47194743 0.062361363 -0.57732373 0.669515 -0.1535231 0.41125733 0.11491599 0.21933563 0.19973707 0.03809112 -0.013995936 -0.37921968 0.3715551 0.13023795 0.08379173 -0.008775211 0.054572243 0.1227352 -0.106740646 0.22495598 0.10551058 0.31524813 0.07771171 0.08935861 -0.3756691 -0.3287753 -0.049489673 0.23197146 0.56074506 -0.016370393 -0.13348222 0.4241352 0.0747481 0.06918844 0.18871008 -0.4559085 0.35199118 0.049440876 0.32574254 0.060271908 -0.025002396 0.5407155 0.0011290327 -0.10603518 0.41678318 -0.09391813 -0.22989458 0.14079954 0.5596383 0.12926565 0.090089895 0.05423904 -0.074764945 0.16961898 -0.4116118 -0.13584302 0.36792508 -0.2874006 -0.14990857 0.1685628 -0.034100786 0.18352985 0.0069238623 -0.0706593 0.143547 -0.41874346 0.23581095 -0.31208512 -0.07522101 -0.102236174 0.01811126 0.29996723 0.15105219 0.0789967 0.14647827 -0.28884515 0.15822773 0.16514683 0.10381134 0.31424612 0.037749432 -0.0018317669 0.540124 -0.10509133 0.1738331 -0.08402812 -0.14539145 0.23892169 -0.14545502 0.2347364 -0.15413263 0.19468194 -0.5676534 0.13713452 -0.7007295 0.318929 -0.2871286 0.1841013 -0.09408148 0.43247923 0.4003283 -0.09086911 -0.4032069 -0.14322518 -0.017157827 -0.3337148 -0.14329457 -0.16884449 -0.064076975 0.050794814 -0.27408907 0.5221023 0.20903927 0.017560551 -0.1618209 -0.08660033 0.59406364 0.48943472 0.08597134 -0.24008451 0.008515038 0.033181313 0.12485979 0.1095634 -0.1932999 -0.4423285 0.042450994 -0.11426331
783720212092903425 0.594511 -0.28703728 -0.06517248 -0.15398572 0.15080777 -0.28919762 -0.36792335 -0.05611951 0.14197592 0.22028042 0.47874632 -0.22341871 0.23291682 -0.2298235 0.41372916 0.27803224 -0.25483906 -0.41162503 0.15651017 0.042133767 -0.1729156 -0.63130397 0.0224028 -0.05908177 -0.2236949 0.11667613 -0.38044006 0.18403183 0.14445248 -0.30145773 -0.11289384 0.0330798 -0.1838775 0.0013017731 0.3912568 0.38974604 -0.25845274 0.0210935 -0.099802926 0.21841376 0.031043392 -0.0069406894 0.008894117 -0.032070052 0.22583757 0.05149355 0.02318611 -0.23767775 0.20086853 0.0066124587 -0.09235654 0.41344467 -0.13728718 0.17704573 0.18101572 -0.2033565 0.3448169 -0.35116562 -0.28282604 0.20534033 -0.12537862 -0.05367971 0.026314052 -0.057596482 0.043669075 0.09870656 -0.046437725 -0.2129383 0.4997608 -0.20347051 -0.4571305 0.15777048 0.017629914 0.1364967 -0.12563564 -0.099535614 0.26224652 -0.079216175 0.04688533 -0.35590065 -0.09448542 -0.079931244 -0.0683716 0.12835191 -0.2751188 -0.13430256 -0.2818413 0.12097008 0.043657195 0.16522934 0.11448862 0.19812654 -0.080066174 0.043957595 0.16252409 0.32898608 -0.011637194 -0.2561164 -0.06301367 -0.26621422 0.38542318 -0.10524272 0.053588007 -0.3474264 0.03793584 -0.07825902 0.29428852 -0.3386715 -0.110895365 -0.48370016 0.2703431 0.209201 -0.25973815 -0.15818405 0.4220865 -0.14980431 -0.43914562 0.22774683 0.3264776 0.5101199 0.039202362 0.1598093 0.15514968 0.12592448 -0.70126164 -0.16036549 -0.053704087 0.16851561
4256619740 0.4057264 0.054977085 -0.37692174 -0.511302 -0.07036796 -0.14218442 -0.14255327 -0.06438421 0.26351327 0.06604123 -0.10016169 -0.02065996 -0.2078829 0.02805591 -0.1084627 0.36546117 0.42613927 -0.16399452 0.020388825 -0.16639969 -0.25903183 -0.35616085 -0.11064838 -0.047101267 0.03507407 -0.32312378 0.13977128 -0.010691506 0.41366506 -0.3905947 0.2512579 0.044478163 -0.21212724 -0.22389318 0.2949779 -0.06533126 -0.21480368 -0.3400423 0.27644417 0.29320467 -0.38223645 -0.2730282 0.09730586 -0.27944624 -0.12105235 0.08846904 0.064153485 -0.005956995 0.19523989 0.090826824 -0.11278747 0.110996135 -0.59387183 -0.00412716 -0.30234915 0.108319186 0.51421493 -0.32155246 -0.28522792 -0.10069661 0.097485214 -0.09090895 0.48607674 -0.32815275 0.15949465 0.051703993 0.01748306 -0.32598063 0.18048939 -0.36727613 0.14862774 -0.11116984 -0.122251436 -0.39555082 -0.28579998 -0.014223198 0.02055548 -0.07485893 -0.18057105 -0.42297938 -0.068568096 -0.2552388 0.2364824 0.3524997 -0.010197038 0.3292583 -0.22091421 0.42983055 -0.25233123 -0.01997885 -0.056252863 0.2722925 0.015532814 -0.19659196 -0.089434914 0.31931597 0.030580327 -0.02788921 0.081515506 -0.10953525 0.19752054 0.032262005 0.040199433 -0.7097858 0.18596484 -0.22379494 0.15679184 0.12085473 -0.15079051 -0.08842355 -0.08634454 -0.19161327 -0.07735917 0.19724295 0.15874687 0.096229374 -0.26502958 0.17566781 -0.14488578 0.61659014 0.31969973 0.2565184 0.024881765 -0.051123414 -0.085851066 -0.22727598 -0.41862458 -0.1743542
2341654764 0.41291928 -0.3228861 -0.07199871 0.11143015 -0.08343101 0.0036028367 -0.03465629 -0.035972558 0.3584324 0.11985683 0.091305144 -0.18922788 -0.14442655 -0.3595309 0.29360595 0.38969126 -0.013574924 -0.20222816 0.31371805 0.20171815 0.08776512 -0.37596902 0.14367886 0.024793342 0.015351808 -0.054601792 -0.20713884 0.16717286 0.23903726 0.10424432 0.033147674 -0.066670194 -0.2721611 -0.258657 -0.16918649 0.24451652 -0.25837034 -0.13194606 -0.2885265 0.17240399 0.21418159 0.03816998 0.25929695 -0.29613188 0.16578555 0.07648909 0.13971002 -0.08363933 0.16578023 -0.115037106 0.04721045 0.4816543 -0.34991372 0.12549427 -0.38889834 -0.22749282 0.12364189 -0.17197867 -0.11987733 0.4449468 -0.39640382 0.0539914 0.29208386 0.109919734 0.2654703 0.044396486 -0.0550831 -0.39415258 0.11680077 -0.13570726 0.039645772 -0.05195046 -0.077079274 0.20352337 0.17205368 0.01426002 0.24679114 0.17643012 0.08244846 -0.35206908 -0.19271688 -0.002805356 0.23156977 0.2932678 0.16056143 0.0025399828 -0.24335645 0.14838502 0.085168526 0.3150162 0.34226128 0.09607189 -0.24638304 -0.093240924 0.0028408745 -0.015553808 -0.12433785 0.05902417 0.0331446 -0.39016676 0.5752583 -0.20763509 -0.1414761 -0.47728208 0.046682063 0.1359086 0.10874205 -0.24080889 0.12313994 -0.21580033 0.36641333 -0.096475326 -0.06888801 0.19903016 0.23250344 -0.035916742 -0.55131686 0.23459159 0.36181018 0.55269814 0.2385929 0.06800646 0.0975661 -0.3134206 -0.52770925 0.27465892 -0.091412574 -0.13410795
753511638507151360 0.44190603 -0.066970825 -0.46724236 0.11380681 -0.058767594 -0.24649511 -0.08431488 -0.068963505 0.20694849 0.217941 0.37092802 0.13405271 0.23565778 0.16899858 -0.31098694 0.12070858 0.029257845 -0.121913366 0.12963662 0.5593404 -0.17667481 0.532805 -0.078236215 -0.18234237 -0.16700567 -0.6052063 0.141031 0.41258448 0.4443327 0.031606656 -0.09358513 -0.14269939 0.38208693 -0.19845678 0.09538377 -0.123918794 0.42662913 0.1120455 -0.21576992 0.053329438 0.23521203 0.14033282 0.1285331 -0.35377842 -0.007405794 -0.32576948 -0.5288776 -0.11233946 0.2739355 0.45424482 -0.058697015 0.076953106 -0.021366341 0.04857143 -0.3390964 0.21260704 -0.25863546 -0.12513775 -0.08845023 0.32721436 0.25909755 -0.16399468 0.2227566 0.0025189207 0.35615176 0.03235737 0.13878897 -0.12751837 0.29589924 0.001748918 -0.2730704 0.48383984 0.25150898 -0.30397558 -0.40430352 0.11474485 0.6257021 0.09715423 0.3052107 0.4335188 0.074859515 -0.0735348 -0.15829922 -0.20984957 0.35671413 0.043704502 -0.009041618 0.41026285 0.32783166 0.37263912 -0.1112625 0.09737478 -0.37136382 0.10967777 -0.32823035 -0.017128143 -0.23078285 0.33334127 0.08378083 -0.004916129 0.54332834 -0.02795639 -0.35227066 -0.4999293 -0.32524294 -0.15611206 -0.06989377 -0.24314034 -0.14486252 0.20324561 0.08284561 0.34790146 0.3724057 -0.13689114 -0.110430144 0.24069834 0.06953057 0.089818984 0.07275 0.229384 0.07813469 -0.24030803 0.24175867 0.4001842 -0.00884859 -0.24308793 -0.04171865 -0.62084675
710771755 0.5053624 0.12377786 -0.20205387 0.14157459 0.3066422 -0.21991983 -0.13483848 0.06707307 0.058996238 -0.25450474 -0.08839217 -0.21057516 -0.015581904 -0.32588783 0.11378963 -0.1473859 0.25794563 -0.06434985 0.1199805 0.008911115 -0.19227259 0.020034488 0.029686093 0.08664112 -0.18423146 0.16653085 -0.27831465 0.06635162 -0.008681271 -0.26454183 0.37863168 -0.2884299 -0.23674141 -0.30114508 0.54220337 0.05578286 -0.28906634 -0.33079597 -0.07252539 0.16197388 -0.35975763 -0.044282492 0.23246354 0.04914176 0.052110955 0.1136918 0.26594594 -0.21613617 0.30117878 -0.03206377 -0.07267497 0.36816782 -0.48861757 0.15475626 0.13539484 0.03139052 0.11760973 -0.27561206 -0.13884662 0.36189923 0.14258371 -0.14183447 0.14712922 -0.13185255 0.64131147 -0.19197766 0.039837617 0.09649122 0.07334376 -0.5496034 0.020283582 0.18281673 -0.1916993 -0.21154644 -0.23042619 -0.09337613 -0.057439275 -0.39439514 0.25547934 -0.44050324 -0.093243 0.13268767 -0.21136034 -0.14635101 0.34787735 0.39615238 -0.15574649 0.70954835 -0.021051323 0.0015364394 0.29354742 -0.0053653033 -0.3025323 0.039883763 0.09366916 -0.15536147 -0.057977226 -0.20949067 0.02139172 0.07170791 0.36914492 0.110378474 -0.2782184 -0.5039831 -0.20652346 0.08079193 -0.12331886 -0.24425921 -0.12606119 -0.050294407 0.038719118 -0.16321346 0.03326285 0.0038463862 0.2896131 0.16438594 -0.2936684 0.2800961 0.35780227 0.025479695 0.25057054 0.43894485 -0.23582922 -0.06326606 -0.40336695 0.18545754 -0.013000837 -0.16011518
535310027 0.22025055 -0.27173865 -0.35539237 0.5357 0.07457662 -0.12897563 -0.0006859389 0.0534943 0.31929117 0.06958354 0.17517886 -0.4399013 0.09880667 0.20839171 0.15495934 0.3582833 0.26253667 0.06018718 0.27023384 0.4693345 -0.02613042 0.27425483 0.26444045 -0.20962287 0.1644674 0.024239706 -0.03646125 0.22402246 0.3002039 -0.33462197 -0.4126598 0.17501193 0.42056447 -0.081205785 0.31663713 -0.23821506 0.332935 -0.2722506 -0.12757528 0.08375544 -0.16518065 0.0068460978 -0.28827593 -0.24635783 0.6782031 -0.010803891 -0.19757666 0.40976202 0.35953766 0.05225134 0.3072094 -0.090645134 0.21003641 -0.32990223 -0.31237513 0.17360987 0.05659468 -0.078398675 -0.21303648 -0.15553921 0.3754401 0.003344189 0.1399831 0.06368499 0.3748263 -0.03383485 0.3523157 -0.13873127 -0.015429508 -0.36071754 0.09215253 0.049613323 0.28716645 -0.4433925 -0.028627723 -0.25775254 0.41743 0.21436737 -0.12606867 0.21759933 0.04738102 -0.09383806 -0.12167843 -0.13491099 0.13296333 -0.26623538 -0.45913556 0.26929137 0.29301858 0.3514776 0.036959548 -0.10766792 -0.32966262 0.40089175 -0.22142404 -0.12540294 -0.2032404 -0.45617568 0.04737806 -0.079581164 0.48772895 -0.14899011 -0.24487817 -0.8523805 -0.40261474 -0.3046773 -0.27100164 -0.20010535 -0.046851285 -0.09969797 -0.12484303 0.14094989 -0.041773137 0.28894922 -0.08243637 0.38783413 0.09871634 0.41498348 0.22324973 0.36081722 0.06578722 0.040534515 -0.03069386 0.547166 0.15915354 -0.035849385 0.43176723 -0.17705794
1467670674 0.2772898 0.20154454 0.35449785 -0.10451808 -0.22150217 -0.32157186 -0.12655872 -0.108290866 0.1585379 0.28219485 0.15760233 0.16609293 -0.051521193 0.25128174 0.28203934 0.062484637 0.20105603 0.008938481 0.11330368 -0.19703728 -0.25571638 -0.112412885 -0.12959073 -0.01724249 -0.22839218 0.1876282 0.035366848 0.50151753 -0.36646593 -0.029202685 -0.05665014 -0.079319924 -0.32114813 -0.3540339 0.084209114 0.04166277 -0.048514385 -0.28289133 0.050132923 0.22991672 -0.21587926 0.055943683 -0.1657472 -0.23575035 0.3790477 -0.059727184 0.097121425 -0.05100933 0.34361625 -0.050122764 -0.17960015 0.21903145 -0.31336087 -0.017331326 -0.2911449 -0.5328649 0.080390595 -0.13962062 -0.20601678 -0.2750428 -0.30196106 0.20769466 0.4481493 -0.32904875 0.4268685 0.16054368 0.1940762 -0.08461046 -0.040554464 -0.09797055 -0.16149326 -0.13099521 -0.13224296 0.34008718 -0.016571512 0.041547634 0.31099892 0.36767748 0.027592206 0.2527744 -0.26072755 -0.33863163 0.12252181 -0.04352932 -0.079728365 0.17620544 0.062184513 0.41351524 -0.09668404 0.22335352 0.028514631 0.15095218 -0.30417648 0.04617412 0.2819376 0.10421009 -0.06554869 0.07706051 0.008989844 -0.09311085 0.24912642 0.034287132 -0.20973915 -0.6278802 -0.20551749 0.0845121 -0.012128506 0.08608793 -0.05177505 0.08082789 -0.34111425 -0.12605213 -0.001166936 0.25640717 0.2429828 -0.061274488 -0.43381792 0.6788034 0.13964294 0.43785375 -0.04664668 0.39814013 -0.16486216 0.084690355 -0.24614683 0.07024704 -0.09385839 0.1142359
788130957576507392 0.369366 -0.18392816 -0.30596995 0.6587732 -0.017417565 -0.2977449 0.19658229 -0.26167256 -0.065619245 0.26587257 0.48684883 0.09176715 0.18077177 0.47604644 0.20436059 0.28152302 0.098213844 0.2838174 0.2932877 0.035233844 0.38154683 0.3161331 0.28029108 0.14726111 0.032686494 0.10247069 0.022010254 0.21573527 0.34164935 -0.31201357 -0.18695855 0.29949623 0.1870992 0.13648418 0.22672203 0.030353786 0.30377346 -0.28830755 0.19423288 0.033063773 -0.033206727 -0.19447516 0.054868896 -0.3123861 0.2722168 -0.07922588 -0.14725834 -0.038894918 0.22586071 -0.0024496922 -0.14343624 -0.15755004 -0.23843889 -0.068501 -0.3143552 0.03572255 0.21650198 0.08971429 -0.37729594 -0.1986006 0.4662581 0.12462392 0.41430303 -0.11097503 0.20857199 -0.13326405 0.3907578 -0.13361472 0.11846295 -0.33132577 0.039407175 0.07771535 0.51135695 -0.004261125 0.02494477 0.13525595 0.36244407 0.11258961 0.07108756 -0.26950398 0.26825655 -0.28985277 -0.25954473 -0.38876992 0.41822317 -0.34003708 -0.45843977 0.4034887 0.14144865 0.2958237 0.21765728 -0.20575945 -0.33001095 0.41880643 -0.35263196 0.04580502 0.24593613 0.20588252 0.33984172 0.30346802 0.38603032 0.2970406 -0.38790575 -0.8602474 -0.373216 0.014166844 -0.042539038 -0.034970954 -0.033344597 0.053685807 0.10882629 0.12151552 0.2326777 0.12349154 -0.07680338 0.0848809 0.28895724 0.6897295 0.12661064 0.37322593 0.17170253 0.07281738 -0.1645759 0.26169986 0.38243827 -0.015021651 -0.19987708 -0.13078983
924547281776345089 0.36785766 0.05311581 -0.30983725 -0.11885948 -0.18236627 -0.16935688 -0.2207026 -0.13809212 0.3292073 0.21053152 0.21855225 -0.27467608 0.22105166 -0.005381471 0.33984154 0.12677968 0.26908466 0.12325867 0.34735447 0.16956842 -0.12473543 -0.078043036 -0.068824716 -0.22731975 -0.21274513 -0.15608525 -0.06590893 0.08947784 0.049266074 0.11975128 0.05096584 -0.14388205 0.15805891 -0.10606805 0.32731563 0.19025233 -0.15984927 0.25213027 0.039491765 0.17145644 -0.13486037 0.12102228 0.036335614 -0.15044776 0.33669215 -0.025005933 0.16800167 -0.24548094 0.1637445 -0.11330872 -0.2076693 0.14107065 -0.34917873 0.14776589 -0.024636108 0.08878921 0.37231717 -0.17910808 -0.14568523 0.2069437 -0.15305705 0.26361445 0.05082056 -0.056148406 0.5467426 -0.28738284 -0.21443656 0.17713322 0.027075227 -0.072909236 -0.06899901 0.15244707 0.48513812 -0.29379573 0.060919084 0.2039312 0.094955154 -0.16441451 -0.045511365 -0.09560794 0.18878394 -0.1222232 0.15131511 0.24435112 -0.12909588 0.028769914 -0.17970058 0.13837634 -0.17855677 -0.038577534 0.30660245 0.18984155 -0.24410164 -0.0018395024 0.13610165 0.37622228 -0.3372836 0.31582707 0.50422233 -0.06319071 0.13779384 0.12884432 0.1237673 -0.023017999 0.28044263 -0.21085344 0.12868564 0.35803473 -0.21301763 -0.29004988 -0.10894774 -0.0464291 -0.10949592 -0.08356495 -0.030079609 0.10258477 -0.32591605 0.15714456 0.020964555 0.68662536 0.17647886 0.2481732 0.49583355 -0.4258225 -0.033753328 0.3940313 0.109832056 0.16051953
264067888 0.11690728 0.19657463 -0.33033973 0.07225583 0.03850697 -0.28458267 -0.16103633 -0.21183586 0.12074082 -0.022517052 0.18924828 -0.26899728 -0.053109463 -0.34404564 0.35610867 0.27021188 0.13550723 -0.20087786 0.35806048 0.012663863 -0.037921682 -0.33893278 -0.13534394 -0.13440357 -0.22527978 0.10256589 0.24157067 0.03863745 0.13593452 -0.014366144 0.18719989 -0.39315772 -0.18418972 0.07840455 -0.2351845 0.2794186 -0.29747203 -0.4724568 0.3067635 -0.14617188 -0.27730572 -0.075722836 0.16040494 -0.022596715 -0.03432077 0.035899375 -0.23060338 0.050060846 -0.04031058 -0.050496317 0.03319253 0.11427802 -0.08718085 0.366658 -0.28448996 -0.33570328 0.27823728 -0.55021405 -0.19317728 -0.06785798 -0.19503178 0.3666408 0.4446905 0.15672135 -0.0032203856 -0.08685892 0.2269086 -0.2543855 0.3197061 0.1754607 -0.019565627 0.32752544 0.07877225 -0.08521841 0.104394324 0.064971946 0.17179605 0.20319639 0.065805264 0.18401483 -0.31223065 -0.21278545 0.3004687 -0.09533266 -0.038722243 0.1800676 0.032533675 0.13853373 -0.0036657685 0.25705883 0.22332744 0.24075028 0.0688863 -0.2512657 -0.11017862 -0.43647158 -0.17752506 0.12496737 0.0756319 -0.19207036 0.3618585 0.18415825 -0.27509797 -0.65814704 0.018842516 0.0063193147 -0.2544963 0.22293414 0.11064258 -0.7573589 0.010875009 0.21485215 -0.5478316 -0.18646458 0.40897632 -0.09748255 -0.52036726 0.36223355 0.43053234 0.28589222 -0.13607195 0.5880135 0.14522551 -0.019776009 -0.3215724 -0.10840269 0.19011302 -0.114694275
169059395 0.045817513 -0.09209118 -0.3041274 -0.039640702 -0.1263446 -0.14915928 -0.33336857 -0.09218587 -0.35421744 0.053390127 0.059498776 -0.17884849 0.18485339 -0.06921291 0.10826827 0.2131799 0.2625385 0.34829912 0.3911677 0.08040653 -0.11599714 -0.12728891 0.24493788 0.062172707 0.087014146 0.07583944 -0.0631104 0.3828369 0.024417594 0.28135002 0.31514317 -0.19197682 0.19164066 0.0054549226 0.01285196 0.30983803 0.47024378 -0.18077229 0.4048163 0.20507926 -0.17996906 0.099190384 -0.46074235 0.08914737 0.121461526 -0.34016073 0.18415636 -0.13473421 -0.038502384 -0.2140492 0.12826906 0.5898062 -0.052143604 0.1616106 -0.0076168953 -0.40977767 0.41341108 -0.50392514 -0.13456522 0.15912473 0.12703261 0.1712946 -0.034832172 -0.048438475 0.524836 0.41713664 0.085162066 -0.043765765 0.45994052 -0.34795356 0.080077894 0.27806097 -0.08302948 -0.541858 -0.09714091 -0.0036560548 -0.3414662 -0.0025589925 0.055649593 -0.21410643 0.064307995 -0.20130217 0.31031242 -0.07484323 -0.20209672 0.32759592 -0.22685866 0.20089088 -0.33587337 0.0067602517 0.51106757 0.1833068 -0.29453287 -0.20320177 -0.20329513 -0.044179246 -0.07495738 0.2236436 -0.22657144 -0.03264973 0.32336733 -0.007926361 -0.465355 -0.27120137 0.029738303 -0.22458053 0.0954056 0.52313906 -0.16391598 -0.17810385 0.06924753 -0.139417 -0.37652797 0.03153906 0.35143602 -0.1095877 -0.2631733 0.11538602 0.27773717 -0.014493449 -0.18214706 0.44624937 0.5343845 -0.29789087 -0.61151624 0.05558522 -0.16944635 -0.44320357
3656884818 0.4582677 0.037259925 -0.55621225 0.06866638 -0.058895506 0.2886443 0.029857416 0.03743371 0.011789726 -0.23760208 -0.17944051 -0.11023272 -0.044898164 -0.3243329 0.34189758 0.41396576 0.0066642384 0.22808167 -0.26050293 0.2652901 0.050358422 -0.4834655 -0.28068817 -0.060268708 -0.12508886 0.05929615 -0.195066 0.13286887 0.2605629 -0.15150322 0.24401277 -0.25455055 -0.10834011 -0.14089699 0.014982359 0.06414631 -0.23113267 -0.18065688 0.013215999 0.4627918 0.22797182 0.014476486 0.030135028 -0.4378565 0.17692706 -0.017386153 -0.1651657 0.09976013 0.17362002 0.061977394 -0.0559576 0.11168107 -0.39406636 0.12709548 -0.35664958 -0.21492311 0.04642161 -0.33180064 -0.43873277 -0.02675025 -0.0015242356 0.025696248 -0.15419394 -0.10575887 0.29632294 0.063254185 0.028493466 -0.2388757 -0.007647028 0.02703895 0.07066645 -0.18454769 -0.019088475 0.061088264 0.028059106 0.114059664 0.09026091 -0.09963164 0.050005484 -0.10602987 -0.50331736 0.22018136 0.071243934 0.17083949 0.35685974 0.20056058 -0.1507043 0.3038566 0.0841251 0.2830404 0.32906863 -0.007369046 -0.08179279 -0.4337212 -0.09669153 0.22969313 -0.18617128 0.25405875 -0.08557125 -0.17752728 0.36250922 -0.18467268 -0.71555907 -0.57237273 -0.040106855 -0.023343842 -0.07599147 0.0942216 -0.1845726 -0.24500014 -0.034083888 0.31656322 -0.15809725 0.3359563 0.0965853 -0.08509024 -0.5287672 0.031464744 0.076445445 0.576473 0.0018282295 0.24100442 0.39044142 -0.2540457 -0.18153346 0.0152129205 0.14297509 0.14453962
2414867082 -0.065993346 0.08458878 -0.265621 -0.21367344 0.17081717 -0.014771262 -0.25505677 -0.26507464 -0.014171909 0.07595273 0.08122542 -0.18644367 0.09117999 0.10585833 0.007530007 0.22381623 0.25063995 -0.19530293 0.19867414 0.048349615 -0.033731695 -0.34604937 0.088757075 -0.1708115 -0.17992713 -0.3735427 -0.057706296 0.3507505 0.2999669 -0.076948315 0.034719624 -0.21093951 -0.026086649 -0.42837653 0.22444566 0.07510817 -0.19669159 0.027545914 -0.032500427 0.1042913 -0.24896789 -0.101703666 -0.10780374 -0.2538375 0.22246152 0.24656905 0.11149191 0.055710122 0.18510003 0.13179553 -0.21306339 0.18142863 -0.21725547 0.18543512 -0.1780907 -0.07595998 0.29443586 -0.31372237 -0.39058587 -0.05559463 -0.19647384 -0.021413326 0.13970815 -0.117262684 0.15659592 -0.11400436 0.23890337 -0.118724346 0.17874467 -0.042161293 -0.29824886 -0.19647326 -0.3400768 0.15108055 0.026398344 0.21559152 0.31633073 0.089303784 0.41542372 -0.34409904 -0.16991007 -0.29029593 0.17493872 0.23375064 -0.09332127 0.292175 -0.13808037 0.33412626 0.21122636 0.23193592 0.1609551 -0.07793441 -0.2848074 -0.15297309 -0.098622754 0.13084531 -0.38456225 -0.15991844 0.045764666 -0.17956422 0.17013188 -0.16909677 -0.2383725 -0.46265057 0.29190966 0.07523519 -0.20846447 -0.14510009 -0.036249865 0.15259801 0.106696635 0.10663678 -0.11795257 -0.17762351 0.10578029 -0.1585233 -0.43514344 0.44189638 0.27696675 0.19013439 0.4860117 0.14745998 -0.25470057 -0.4635578 -0.7114806 -0.15237325 -0.45926607 -0.44909665
49294655 0.29467466 0.16290472 -0.1875164 -0.1264094 0.04739635 -0.18136689 -0.0018252591 0.010558668 0.2425419 0.14608453 0.1871247 -0.00479878 -0.2117403 -0.07718034 0.026349304 0.27504346 0.14920439 -0.42088327 0.3448981 -0.055665053 -0.24223438 -0.36685297 -0.004843414 -0.092712924 0.16465284 -0.27174833 -0.121706635 0.5723553 0.035466384 -0.29132456 0.066061795 -0.107398756 -0.010757935 -0.4238826 0.16373739 -0.05189688 -0.24693468 -0.030632686 0.038561147 0.23767799 -0.22404487 0.16443813 -0.021261545 -0.1466885 0.07576444 -0.37053987 0.23596811 -0.10256535 0.15069751 0.12280196 -0.21664801 -0.048392646 -0.24035457 -0.113572575 0.06039321 -0.02230489 0.380194 -0.027050843 -0.054698363 0.0009991358 -0.16420193 -0.028758902 0.36723414 -0.16739295 0.26882973 0.28974843 0.035506018 -0.3793237 0.051418774 -0.14507425 -0.28179473 0.048212264 0.25926033 0.0031219386 -0.029143162 -0.050377015 0.24561772 -0.037723586 0.62978756 -0.17706591 -0.24517544 0.09455746 0.23067817 0.3313639 0.10721807 0.3419044 -0.3660051 0.38319153 -0.1390128 0.07132569 0.27150595 -0.2276185 -0.22916298 -0.044265404 -0.2041972 0.06151529 -0.14055543 -0.32469308 0.19701451 -0.14818224 0.6583074 0.042623702 0.14035407 -0.57018274 -0.21484248 -0.14387524 0.14829075 0.012668117 -0.118824035 -0.07938773 -0.0013927496 -0.36218944 -0.12739404 -0.22214933 -0.069120675 -0.059791088 -0.48449343 0.18309928 0.11652136 0.3616673 0.16928375 0.18728659 -0.21942064 -0.106798306 -0.5889185 0.052485026 -0.05426417 -0.038858935
803581791168765952 0.3859799 -0.0038235046 -0.44271812 0.116507985 -0.049800053 -0.257005 -0.25120243 -0.109911285 -0.06875227 -0.07547358 0.31472218 -0.30507332 0.34698144 0.28134412 0.16246174 0.13843071 0.062222246 0.065965764 0.38543397 0.3124431 -0.020236861 0.03834702 0.15651555 0.10831657 -0.052626655 0.06909133 0.031472184 0.24773794 0.2351164 -0.10694773 -0.3030747 0.025384517 0.118481115 -0.054062966 0.16095553 -0.33667675 0.25505492 -0.098679274 -0.10302022 0.14190413 0.1411772 0.4036651 -0.012672338 -0.10615058 0.32319582 -0.2682756 -0.302997 0.05164395 0.38965693 0.47907528 -0.20018752 -0.11810672 0.13751617 -0.327531 -0.1502198 0.36952624 -0.25234953 -0.17947946 -0.12243692 -0.028101407 -0.01357039 0.13672401 0.3918882 -0.42515796 0.029980125 -0.23596913 0.4554814 -0.16327171 0.028408516 -0.2411158 0.19533849 0.471729 0.48321933 0.018605435 -0.22150408 -0.05644094 0.32497022 0.1447266 -0.08960169 -0.12936214 0.2981357 -0.44652006 -0.3580732 -0.13442393 -0.08222753 -0.38520786 -0.029342072 0.536146 0.20958662 0.16365147 -0.14233993 0.096562974 -0.64146656 0.4603215 -0.15123357 0.44110197 -0.07513718 -0.27479473 0.05850694 -0.24406186 0.20309716 0.07048478 -0.14903405 -0.41676396 -0.26279497 -0.057925776 -0.23853928 -0.5746488 -0.23897976 0.1189857 -0.04073888 0.2409067 -0.10410524 -0.041321825 -0.14537263 0.42962644 0.12474672 0.5766304 0.11678934 0.55862385 -0.12162714 -0.24231161 -0.2739627 0.16633171 -0.10060416 -0.0075552836 0.16626272 -0.15060551
97898524 0.24867386 0.09513453 0.053407993 -0.12907664 -0.42837518 -0.16905037 -0.05421722 -0.16914874 0.09223893 0.13394387 0.43415502 -0.30647212 0.04390902 -0.016475122 -0.15186353 0.38617375 0.252324 -0.038702592 0.35628632 0.13027553 -0.029266354 -0.37855384 0.2493166 -0.21689457 -0.17599714 -0.002771498 -0.23353355 0.14403826 0.29051745 -0.045837246 0.04335333 0.07957679 -0.24321285 -0.3047441 0.26378235 -0.09101507 -0.4223315 -0.12912215 0.14742497 -0.041333478 -0.07964838 -0.12254673 0.21650277 -0.14105247 -0.0038871034 -0.09730307 -0.19249551 -0.04382945 0.4177584 -0.099454835 -0.009228998 0.20665246 -0.18891536 0.16500944 -0.007006285 -0.34833008 0.0053830002 -0.27803528 -0.27456546 -0.17109531 -0.015556327 0.044701617 0.36065072 0.081187904 0.32541585 0.24736752 -0.019393833 0.024719207 0.21688151 -0.20707056 -0.120841004 0.06410449 -0.23500063 -0.21223536 -0.022345144 0.08598276 0.14141835 0.068875566 0.2371404 -0.3604739 -0.13822399 -0.14528127 0.18987745 0.49923262 0.11718906 0.14790244 0.05040064 0.3535762 -0.049728647 -0.02572962 0.2806249 -0.024985176 0.06741413 -0.5062156 0.18059658 -0.045679778 -0.08030741 0.37065792 -0.013021869 -0.2663501 0.44134992 -0.106062986 -0.061776727 -0.6895839 -0.019229295 0.014973472 0.15616977 -0.27529153 0.015228212 -0.22512415 0.24099849 0.103482135 -0.3201351 -0.27606398 -0.07257972 0.046779666 -0.60709786 0.4540331 0.24879779 0.6442233 0.43601087 0.3315659 -0.019981777 0.008727158 -0.38148516 -0.15951616 0.19112821 -0.080465816
926100672998543360 -0.016154077 0.053574394 -0.1217436 -0.1478496 -0.115529306 -0.46332318 -0.044726197 0.10202732 -0.111752994 0.3800175 0.45779255 -0.29006687 0.47843167 -0.03181035 0.27014884 0.5861089 0.35122445 0.25177675 0.14176562 -0.03193416 0.19096598 0.1231539 0.058268577 0.09937432 -0.07517365 -0.19756146 -0.31682348 -0.14844006 0.3622977 0.19982877 0.28915837 -0.14749609 0.19619137 -0.22686346 0.20248748 0.21433869 -0.24823712 -0.2926216 -0.087472245 0.050633337 -0.066266604 0.09166884 0.29234576 -0.09392143 0.663737 -0.41460642 0.16375642 -0.014843516 -0.024246912 -0.21358754 -0.1943955 0.13177368 -0.02349137 0.1807408 0.27388445 -0.12358157 0.44169888 -0.028301664 0.13127038 -0.29343173 0.035554804 0.3518421 -0.08939152 -0.40500298 0.21394938 0.30610242 -0.21265945 0.010789977 0.5298506 -0.47490358 -0.2751328 -0.033468664 0.42831597 -0.6469544 0.018425358 0.0655872 -0.006904892 0.32946816 -0.3483801 0.41124645 0.0003217279 -0.042422898 0.085595466 -0.17294268 0.14447875 0.062412214 -0.15725292 0.62178314 -0.14560243 -0.049144294 0.5683961 -0.110644296 -0.15830027 0.5090789 -0.08998316 0.18435997 -0.41288638 -0.122826 0.5006224 -0.34780073 0.20488024 -0.046989534 -0.024419406 -0.49673352 0.11479253 -0.11108833 -0.09527865 0.10436457 0.288608 -0.32291898 -0.026569823 -0.0062672645 -0.13290453 -0.103710584 0.07692547 -0.2558242 -0.13996598 -0.3105167 0.27479452 0.0019447799 0.3863026 0.34268346 0.32712966 -0.46858966 0.0149031365 0.04096864 -0.027476694 -0.44350797
741052868086616064 0.1634564 -0.3926312 -0.02065743 0.3112084 0.2342512 0.06288973 -0.1056677 0.06378036 0.14859746 0.053478584 0.8448437 -0.20112588 -0.10796236 0.32248497 -0.08276112 0.30980977 0.22910221 0.022078998 0.29658443 0.5707204 0.21901304 0.07267029 0.06095903 -0.16692089 0.17200589 -0.029912049 -0.0138536785 0.29121977 0.41314232 -0.2353099 -0.009101186 0.022080375 0.32434532 -0.058935888 0.11654344 -0.041150644 0.43624943 -0.53034043 -0.19527203 0.089889504 0.15855658 0.26508301 -0.03999876 -0.28309315 0.38433468 -0.06028243 -0.17818803 0.2641998 0.29873842 0.19524096 0.038588233 0.01644068 -0.17561884 0.08075483 -0.24690075 0.003031713 -0.049854185 0.010205066 -0.08915039 0.06296073 0.33026937 0.110453114 0.30501994 -0.07132235 0.29534703 -0.39128864 0.11737304 -0.35632303 0.38639632 -0.39449567 0.104029104 0.11698522 0.34263647 -0.24236776 -0.0545375 0.109758325 0.33685803 0.2216069 -0.16867954 -0.07203729 0.21523337 -0.22296822 -0.20057839 -0.3062277 0.44083196 -0.3096618 -0.52212334 0.43822002 0.0127496235 -0.18139131 0.25532377 -0.26563957 -0.4715078 0.4422818 -0.19256073 0.466857 -0.07717871 -0.052446537 0.120379865 0.015501703 0.4892537 0.0690814 -0.36652476 -0.84431785 -0.30941564 -0.45494178 -0.074596055 -0.41259852 0.10742083 0.15309478 -0.008733432 -0.14293198 0.07099368 0.2955574 -0.20418477 0.18988368 0.46467403 0.83713746 -0.22315241 0.3517134 0.020711668 0.17347318 -0.02651142 0.24675192 0.03587185 -0.013007813 0.24050653 -0.32983124
133621631 0.26317447 0.09529476 -0.113447934 -0.08194625 -0.06305379 -0.2906105 0.00503001 0.17973828 0.22986491 0.06540415 0.30354136 -0.36221012 -0.020497601 0.2650812 0.11116531 0.36887425 0.4501393 -0.18891053 0.49692473 -0.07298182 -0.2688553 -0.48999992 0.070060894 -0.3419774 -0.17780946 -0.028929545 -0.37648094 0.40213072 0.112066664 -0.057568114 -0.0041003884 0.04068363 0.14488931 -0.32954693 0.28751278 0.12697102 -0.22249413 -0.1581519 -0.045301467 0.20930138 -0.25978872 -0.0201485 0.18546066 0.20690483 0.20152982 -0.12611783 0.06237636 -0.1045956 -0.28421795 -0.042391412 -0.055805128 0.18538581 -0.50170803 0.3757362 -0.0028568872 -0.003215031 0.21177267 -0.1364068 -0.18065158 -0.17708422 -0.18011566 -0.07526345 0.24417181 -0.29217163 0.3834833 -0.07527306 0.23420268 -0.27258554 0.17270575 0.028853415 -0.071145974 -0.25912374 -0.059326816 0.11935952 0.038913827 -0.27000567 0.094638854 -0.05052347 0.32273018 -0.2301618 -0.042265296 -0.0361962 -0.007902924 0.19689001 0.057596434 0.21675174 -0.23327868 0.20709316 0.056593247 0.34952718 0.2796543 -0.34028688 -0.10285765 0.11590005 -0.05605241 0.03798603 0.0014963332 0.04510919 -0.108458884 -0.3699822 0.5253694 -0.250224 -0.040795054 -0.59733975 0.08611331 -0.022296742 0.1628761 -0.060406752 0.21699923 -0.016513458 0.094001114 -0.2208079 -0.27691677 -0.24656363 0.026049227 0.09273496 -0.34418842 0.083641864 0.18744102 0.45084643 0.230174 0.21784559 -0.16192894 -0.03561786 -0.4591073 0.17323488 -0.06376236 -0.28948373
66850040 0.36937955 -0.42227453 -0.5728727 0.22544071 -0.03294071 0.13662472 -0.0034338997 0.041805062 -0.0038599693 0.19001213 0.35899308 -0.10717833 0.33261135 0.010362935 -0.025160003 0.23601668 0.44820294 0.20170861 -0.1687695 0.33695126 -0.0037724432 0.17518407 0.08176233 0.17285727 -0.008626485 -0.45125932 0.09631277 0.080403 0.94317377 -0.252379 -0.10160067 0.15137324 0.02635587 -0.22133392 0.17665637 0.025027882 0.40464115 -0.37669426 0.0134393945 0.12636708 -0.28886607 0.5336733 0.07711786 -0.36547822 0.40882084 -0.20235288 -0.59421355 0.27971956 0.03672791 0.278918 0.29516664 -0.4725938 0.076698005 -0.058626235 0.062179565 0.32185984 0.1114038 0.048480406 -0.3484132 0.24043426 -0.03671477 -0.050449263 0.49629045 -0.35367772 0.36481547 -0.22070478 0.7112629 0.12608978 -0.3965918 -0.31781602 0.052114766 0.17051321 0.07881782 -0.2575813 -0.15657045 -0.038641848 0.541228 0.1579394 0.2501413 0.51500505 -0.03605203 -0.21835613 -0.070284605 -0.104826175 0.3174793 0.04931492 -0.6169736 0.10495479 -0.078174636 0.28425738 0.21637136 -0.193731 -0.17020418 0.4431415 -0.33268863 0.0998138 -0.20392622 0.06776362 -0.045165006 0.33614308 0.90086615 -0.27192092 -0.4630625 0.018073602 -0.03755869 0.0012028828 0.15103245 -0.36844847 -0.31432515 -0.057313718 -0.39186683 0.19969988 0.15027113 -0.25612363 -0.042448584 0.30568635 0.5961144 0.15730023 0.13372143 0.20572658 0.28260133 0.2824307 -0.14158198 0.28211433 0.03632408 -0.15782641 0.05099641 -0.4818713
784205077 0.405203 0.30652267 -0.3723276 0.11460008 0.05125733 -0.30430666 0.026860656 -0.19145598 -0.04968681 -0.20251852 0.16136779 -0.501933 0.04652713 -0.2895123 0.1900228 -0.013131847 0.06578891 -0.22226055 0.09065185 -0.016035605 -0.2164178 -0.029538114 -0.49991488 -0.3942031 0.11931556 -0.20687596 -0.13184659 0.075057425 -0.13038681 -0.16074793 -0.024077574 0.16637959 0.12903829 -0.32798305 0.10742707 -0.099068955 0.21881711 -0.026466237 -0.009615952 0.3020641 -0.49489835 -0.0062080696 0.21598288 -0.15535156 0.015327971 0.022413293 0.007342933 -0.10225598 0.022709696 -0.1280861 -0.13962673 0.14776093 -0.6665703 0.38893726 -0.29326287 -0.22927842 -0.061145756 -0.20467564 -0.5214168 0.09758295 0.14755858 0.3057305 -0.045799427 -0.2515275 0.54514205 0.010461003 0.21967828 -0.2466039 0.0010615779 -0.18317167 -0.0062587815 -0.4238627 0.024928298 0.003727419 0.06943711 -0.038914643 0.31299257 0.22983909 0.13347305 -0.17786157 -0.5204122 0.14830576 0.46871248 -0.019090561 -0.2904127 0.38069686 -0.36232466 0.4712509 0.035932865 0.07694266 0.08769861 0.13198577 -0.20950043 -0.25214216 -0.23887324 -0.08716301 0.30361146 0.16603528 0.057892244 -0.05499629 0.23671359 -0.14993165 0.24831915 -0.6084047 0.15629967 0.21888363 0.07951651 0.12345235 0.16926359 -0.26682803 -0.02861561 -0.30142212 -0.06840675 0.43244693 0.18229274 0.08933678 -0.03612946 0.30979058 0.13311625 0.25653034 0.2282838 0.41060528 0.041161504 -0.24553356 -0.3375358 0.04817898 -0.15764861 0.1416631
2978821568 0.34976953 -0.23295431 -0.004109946 -0.0056099715 0.26229224 0.018369757 0.12450456 -0.47279304 -0.20854685 -0.26330987 -0.14528334 -0.12677446 0.032113124 0.2764887 0.26303288 -0.29393575 0.06753752 -0.18789263 0.54378927 0.35855424 0.04131812 0.10821267 -0.20599547 0.05429961 -0.15072265 -0.08444331 -0.07636119 0.39816514 0.067648984 -0.23549238 0.13222334 -0.37538585 -0.2582482 -0.020387167 -0.21653369 0.22111796 0.0901608 0.10846466 -0.11712229 0.35444948 0.24630108 -0.16369458 0.21662587 -0.23459885 0.52354455 -0.29011196 -0.3229313 0.20826985 0.32090166 0.014139338 -0.15315877 0.024289321 -0.39002478 0.20154068 -0.029156696 -0.27760324 0.26143873 -0.1864202 -0.48995093 0.3026976 0.12688057 0.008240846 0.00042673 -0.0224805 -0.06847993 0.19971727 -0.062877506 -0.26262653 0.20448557 -0.04898448 0.100397035 -0.22128679 -0.02628628 0.07442926 0.19067696 -0.31258285 0.337744 -0.23735452 0.013271103 -0.0514973 -0.08583152 -0.32315043 0.15919971 0.08131957 0.1384158 0.25015852 0.033083495 0.18758017 -0.191717 0.22471043 0.27710447 0.079267584 0.11241475 -0.3591191 0.09950544 0.040151883 -0.2668162 -0.3381259 0.08536912 0.14839607 0.21236722 -0.38016522 -0.5489581 -0.2592506 0.32560095 -0.27535325 0.04993098 0.043790832 0.057998013 -0.42073277 -0.12984397 0.11312618 -0.43402958 -0.02464666 0.11027433 0.16053961 -0.85268265 0.039566044 0.3438123 0.6662831 0.1013288 0.30531096 0.30859983 -0.4626612 -0.42975107 0.10236091 0.0055352286 -0.15069571
2243705821 0.13686933 -0.15972316 -0.16254897 0.035727642 -0.17800967 -0.042944938 -0.313707 0.11569609 -0.35380948 0.29930943 0.34118176 -0.25724724 0.06502207 -0.10841277 -0.015124385 -0.49575827 0.4135665 -0.23882172 -0.053032596 -0.34904313 -0.19747268 -0.00718144 -0.15405673 0.1311991 0.083533995 0.08837148 0.26410577 0.09851935 0.33946344 0.21543571 0.008032597 -0.03746053 -0.100681454 -0.29110852 0.24574883 0.14998308 -0.11443862 -0.07372471 0.06986509 0.36126643 -0.13330713 -0.021251373 -0.12944478 -0.08065875 0.47571635 -0.52990896 -0.4876247 -0.3126915 0.35385314 -0.25787383 0.6016625 0.20815228 -0.33579662 0.37476015 -0.23196368 0.10433983 0.07227647 -0.74438506 -0.6428435 0.100981794 -0.16213506 0.019575814 -5.662143e-06 0.2530603 0.153301 0.03864665 0.1303422 -0.2751127 -0.1390387 0.21441354 0.1081437 0.0020169858 -0.11020979 0.014728399 0.25131348 -0.5685315 0.27314937 0.3191002 -0.13166884 0.16814972 0.103817925 0.031129744 0.19233344 0.60514313 0.25771075 0.013471608 -0.46700698 0.2981637 0.19388258 0.44634154 0.0078526195 0.028706899 -0.3951459 -0.2669235 -0.108116105 0.26572037 -0.47816005 0.07911741 -0.36234692 0.057441406 0.013018375 -0.06335811 -0.21645461 -0.5718178 0.13947667 -0.139935 0.03470818 -0.008624572 0.34916037 -0.3862996 -0.20793824 -0.20218164 -0.3082643 0.23612188 0.1034804 -0.3515136 -0.25169012 -0.25125095 -0.029375989 0.4274291 -0.10036284 0.036352 -0.10083575 -0.43628496 -0.32197738 -0.08636143 -0.22898737 -0.119171955
953615491771260929 0.42712325 0.12207149 -0.10566215 0.027104722 0.12901253 -0.24335384 -0.23421983 -0.21255113 -0.051328868 -0.0070711835 -0.12503773 -0.08541167 0.43523136 -0.13148284 -0.009327237 -0.08353577 -0.025479607 -0.11699373 0.15652183 -0.029937176 -0.36945957 0.16485803 -0.08171498 -0.21105844 -0.21950565 0.22633746 -0.2129453 0.16311058 0.12173539 0.22727424 0.63491654 0.29324135 -0.11197763 -0.07786307 -0.15638112 -0.19901143 -0.4815512 -0.1642701 0.20635417 -0.008583899 -0.25824448 0.18333814 0.21115005 -0.010805132 0.3503039 -0.007095355 0.060158946 -0.15486678 0.3755246 0.011074216 0.23969382 0.155945 -0.20443462 -0.023680557 -0.27411112 -0.32029033 0.116043486 -0.16105293 -0.14433485 0.29804012 -0.02410516 0.14051704 0.17667466 -0.43773967 0.5200705 -0.28777617 -0.1570092 0.108769655 -0.19590029 -0.30394375 0.13373895 0.09102649 -0.08604261 -0.44193855 -0.20969407 -0.27168363 -0.20226943 -0.12991063 0.15444392 0.09304563 0.15102844 -0.18333751 0.034913417 0.41911873 0.09072413 -0.40827984 -0.29859504 0.08673787 0.039065566 0.28028005 -0.12956958 0.17344403 -0.29505685 -0.16398971 0.05244094 -0.14653574 -0.3447607 0.12961145 -0.09245424 0.14108387 0.040700063 -0.027627856 -0.27443704 -0.0872047 0.19993368 -0.16689672 -0.36532637 -0.0018779401 0.20577677 -0.07499132 0.03795626 0.2827788 -0.6457125 -0.094546065 0.40651563 -0.26084647 -0.09129384 0.31454536 0.006035228 0.14444184 0.2972265 0.24435349 -0.28442624 -0.25335097 -0.5345992 0.30230886 0.018091565 -0.1743764
925698740060610560 0.2137809 -0.4035529 -0.44185972 -0.14616439 0.11422236 -0.12562649 -0.5435207 0.00022892881 -0.035032146 -0.22515191 0.15074728 -0.11452741 0.20918968 0.06565419 0.063807 0.0044439263 0.106908605 -0.29163018 0.29743463 0.044949304 0.20775357 0.14627525 -0.07323502 0.11825475 -0.16905287 -0.3335414 0.022505697 0.3267378 -0.108422674 -0.32415915 0.46751815 -0.06629296 -0.22086224 -0.1732647 0.20033818 0.27566314 0.16820861 -0.33550864 0.16562533 0.30471367 -0.2359372 -0.06937432 0.18072185 -0.13162537 0.26689968 -0.31609225 -0.47486728 -0.14103447 -0.041838195 -0.1691725 0.31410354 0.23150605 -0.2471235 0.10062829 -0.06377925 -0.10027767 0.045663822 -0.32502207 -0.5372803 0.062083684 -0.3610972 -0.33683512 0.09399639 -0.419353 0.62212193 0.0078703 -0.05256717 0.15466456 0.15443066 -0.16267328 0.030835975 0.013305956 0.012253208 -0.30327538 -0.32040852 0.20461957 -0.189031 -0.30005625 0.2816057 -0.22337526 -0.05735474 -0.14098136 0.13183068 -0.13606139 0.330023 -0.13995628 0.08298014 0.25793734 -0.37589806 -0.20577931 0.1339639 -0.20009628 -0.120407924 -0.09264139 -0.11398209 0.100544795 -0.15736832 0.5853256 -0.031757027 -0.11848031 0.7233582 0.37791386 -0.27572465 -0.14357069 -0.24877673 -0.27713826 -0.13553236 0.3307614 0.10444908 -0.48161167 -0.057611015 0.38660026 -0.5505342 0.1984697 0.47997245 -0.28777954 -0.46643537 0.064749934 0.13216282 0.10263653 -0.21133277 0.12208878 0.12338994 -0.096542194 -0.5332493 0.17833719 -0.15052274 -0.113970816
2422137979 0.5892861 -0.015773369 -0.13131253 0.19714819 -0.066694364 -0.035841923 -0.0046660374 0.15953124 0.12321025 -0.15628892 0.25700325 -0.26470357 -0.18670179 -0.120679 0.22568557 -0.010801684 0.14763926 -0.27500352 0.32165882 0.06132423 -0.046790536 -0.0699624 0.03609118 0.12613572 0.067944475 -0.079884104 -0.1549833 0.14535162 -0.08355945 -0.15729365 -0.105265275 -0.18882856 0.12129536 -0.16131176 0.3536918 -0.00082160614 -0.20414759 -0.28109786 -0.1338776 0.02184245 0.0849326 0.32216704 0.34363267 0.040089525 0.3640658 -0.48793024 0.16395749 -0.1731997 -0.15802647 -0.13208759 -0.16334628 0.3035675 -0.40814537 0.26345396 -0.2088045 -0.039997473 0.14115085 -0.41422832 -0.13701412 0.06150517 0.4747553 -0.10855677 0.22843559 0.16095203 0.33764103 0.1437415 0.1798347 -0.08525549 0.120566405 -0.029947758 0.1577943 0.10584321 0.020905605 0.3183316 -0.057369035 -0.1256287 0.4099789 -0.32503855 0.23122767 -0.1858289 0.011992302 -0.0948732 0.049665533 0.13096713 0.1418133 0.100185424 0.005944076 0.3365512 0.029540114 0.32547757 0.15610006 -0.11426238 -0.24174353 -0.22556156 0.14827277 0.095648736 -0.50394124 -0.14773968 -0.12355077 -0.48750436 -0.050684355 0.046911966 -0.47681102 -0.75783455 -0.016470332 -0.11098835 -0.035816528 -0.09868313 -0.46257702 -0.51027423 -0.026382396 -0.11178018 0.092208676 -0.21694422 0.34196648 -0.07818569 -0.44890308 0.18596047 0.18216161 0.553825 0.07262427 0.364835 0.28077626 -0.39017612 -0.36690903 0.28747758 -0.27481025 -0.1439314
3013690531 0.19099483 -0.036149565 -0.20787852 0.18319525 0.072940364 -0.23172794 0.011745759 0.091849476 0.10165816 0.1911224 0.16859399 -0.03224055 0.06855918 0.5448767 0.2809597 0.42037085 -0.015131815 0.24167004 0.33318695 0.30695722 -0.10446972 0.069789596 0.046847675 -0.09195739 -0.08901653 -0.25183058 -0.31444466 0.34843296 0.4589823 -0.16382526 -0.19824873 -0.24284826 0.108095974 0.23784986 0.15406443 -0.29314056 0.087297074 -0.4032309 0.03895571 -0.062791996 0.060879342 -0.12674913 -0.09937208 -0.28726622 0.5756353 -0.046874493 -0.3627147 0.114229396 0.36225417 -0.114737384 0.30893534 0.07360944 -0.23112185 -0.28814307 -0.2984638 0.038756948 0.099108666 -0.1915903 -0.3595617 0.21304762 0.3819516 0.17829442 0.2858751 0.028964834 0.14607422 0.09293679 0.45223334 -0.36065295 0.10466234 -0.25708744 -0.13524517 0.23399161 0.17040053 -0.20540212 0.14903544 0.059629012 0.640453 0.1894299 0.09011859 0.24598102 -0.24357018 -0.24739231 -0.0972794 -0.102347314 0.3865934 -0.27759948 -0.29414612 0.46030045 0.27063268 0.23700035 0.0059480052 -0.19272722 -0.22994755 0.24749301 0.23357433 0.034673326 -0.14143345 -0.057659417 0.41798723 0.3201745 0.25003478 0.062009986 -0.49269563 -0.6214248 -0.21602513 -0.124607205 -0.081314355 -0.3527933 -0.07491461 0.26138383 0.08249039 -0.31527108 0.105001695 0.3110201 0.07024519 0.4524281 0.19397429 0.8431927 0.34770936 0.066081 0.027662903 0.2749319 -0.35051695 0.5153193 -0.034576107 -0.0044103935 0.3502416 -0.30648166
2475833309 0.13167131 -0.26466545 -0.19889069 0.35003245 -0.010570046 -0.6563085 -0.15450425 0.056834336 0.14862715 0.24292094 0.6352738 -0.07365345 0.066864274 -0.09811048 0.33712864 0.622666 0.35045832 0.051697403 -0.03428364 0.11676972 0.026605638 -0.08659843 0.31741524 0.2048701 -0.014365327 -0.2659805 -0.3463556 -0.09184195 0.23780426 -0.42230448 0.21587728 -0.14026098 0.061354555 -0.16673066 0.31011805 0.26643172 0.21986839 -0.2572989 0.26832232 0.03342945 0.007488392 0.08807602 0.13040525 -0.20560455 0.6781889 -0.3044099 0.060339592 0.16611783 0.5081862 -0.2205961 0.14328535 -0.12087268 -0.2808996 0.22772272 0.28537923 -0.18129247 0.08507226 -0.04573993 0.21091281 0.19024462 0.111478485 0.35864717 -0.057820104 0.20704946 0.19206868 0.09050044 -0.03194283 0.2706524 0.2957884 -0.36800614 -0.3427677 0.08449164 0.557546 -0.23368375 0.23334609 0.30370188 0.021974605 0.3247595 -0.2623401 0.016037364 0.35224554 0.088221274 -0.1364416 0.0076158238 0.049800016 0.21088248 -0.1283145 0.56381387 -0.04609966 0.38024753 0.30562633 0.11498807 -0.047211017 0.5589323 -0.08868631 0.20713109 -0.27099648 -0.10988909 0.382526 -0.23918393 0.2075392 0.024848925 -0.14629284 -0.5225896 0.07482333 -0.46348354 0.035610747 -0.034632005 -0.09585693 -0.11748644 -0.06914176 -0.05546064 0.002582958 -0.23298429 0.15199141 -0.25888956 0.059698004 -0.10846874 0.18011034 0.23294331 0.008308234 0.39611408 0.35504827 0.330093 -0.015646433 0.23126915 -0.058401454 -0.27414033
806045637208739840 0.31560418 0.24926168 -0.31884333 -0.27463853 -0.24241674 -0.33376035 0.28819528 -0.023142293 -0.17652245 0.17236413 0.08788459 0.15623611 0.10539997 -0.21565251 -0.047059547 0.12094349 -0.1353007 -0.41687664 0.034448996 0.13025004 0.18407112 0.595849 0.033764564 0.18454872 -0.2919335 0.28463316 -0.124745056 0.2080722 0.32218358 0.5274777 0.23219693 0.14895341 -0.18546988 0.151641 0.32444403 -0.05145986 0.0123195285 0.0010189295 0.123014994 0.18398009 -0.33505 0.29073545 0.44563603 0.046769425 -0.006974708 -0.09047643 0.04202272 -0.24426818 0.034296405 -0.08048363 0.01145884 0.39178106 -0.1142374 -0.14182478 0.044900842 -0.49975255 0.36140355 -0.10706487 -0.09347839 0.31982332 -0.13212119 0.11245206 0.48960248 -0.19800365 0.12675695 0.2124594 -0.26062542 0.0037129559 0.6305465 0.05548893 0.077974 0.17531359 0.21638298 -0.34178412 -0.52092457 -0.09075293 -0.15893847 -0.13159075 0.24975221 0.19811137 0.017346175 0.28082553 0.11751893 0.5049915 -0.0033591986 -0.1391897 -0.33067968 0.35093594 0.2567345 0.12551306 0.3722643 0.16940801 -0.49226394 -0.27337068 -0.1725638 0.21526544 -0.11919199 0.0046666325 -0.042337306 -0.09756054 0.26516807 0.28954414 -0.06512651 -0.32101792 -0.2999575 -0.38019058 -0.42016476 0.39306214 0.1435863 0.05429843 -0.22036749 -0.019976294 -0.31018674 -0.07989072 0.32294178 -0.41009176 -0.028754694 -0.09505178 0.6298912 0.3938588 0.13010618 0.09887979 -0.0021996053 -0.011151603 -0.8160491 0.5449923 -0.4451892 -0.12014187
163810080 0.4836679 0.11390301 -0.16472247 0.1519304 0.16802469 -0.09661978 -0.16396731 -0.16802555 -0.113317885 0.34600252 0.13308631 -0.38771626 -0.45139086 0.24795218 0.48387808 -0.011591752 0.47580305 0.07091026 0.17411551 0.019213961 0.19571224 -0.32507464 0.031408124 0.1421028 -0.20376793 -0.33907312 -0.41676608 0.3860325 -0.21176848 -0.16322789 -0.26778746 -0.16310738 -0.0043811523 -0.0874226 0.13352224 0.012731498 0.044036724 -0.4523917 0.054723695 0.15297575 0.08001165 -0.050494634 0.2604823 0.0055929013 0.43220946 0.044615865 0.08737228 0.022673147 0.33593205 -0.04339157 0.46208528 0.19083656 -0.19760056 -0.05660929 -0.38822854 -0.2826843 -0.20856996 0.076583356 0.12360618 0.15776025 -0.3591807 0.37081888 0.0031939207 -0.0006652228 0.11329856 -0.14076126 0.12550575 0.08091049 0.07073689 0.03673471 0.20104776 0.017204175 0.043133706 0.0046494496 -0.18019885 -0.09160441 0.5443247 -0.02019111 0.358809 -0.19477457 0.21615213 -0.21978791 -0.09676995 -0.003719938 -0.10721008 -0.1587364 -0.091987066 0.28014228 -0.043164223 0.021583969 0.063491315 -0.03741641 -0.16930598 0.038745675 -0.07940664 0.08894404 -0.28296992 0.3014665 -0.053169843 -0.2110104 0.06032748 -0.08508957 -0.10478032 -0.5759088 -0.24401957 0.08897239 0.14121245 0.2114047 -0.23947872 -0.32400346 0.33992177 -0.15290232 0.048820123 -0.39423418 0.19651079 0.31324536 -0.011212933 0.43348613 0.17416888 0.23335735 0.23264682 0.0675617 0.26469135 -0.1268326 -0.4674823 0.10754548 -0.19327119 -0.051118027
1428823922 0.40407607 -0.22940654 -0.31646156 0.49651742 0.13455458 -0.45356986 -0.15025608 0.1564642 0.27328873 0.42160773 0.3798171 -0.22737764 -0.07524414 0.35589483 0.10970107 0.19246794 0.3638643 0.094105296 0.33022913 0.39588946 0.10862155 0.32616857 0.35503706 -0.025837632 0.10152917 0.056258783 -0.025133416 0.2111301 0.47901696 -0.21343961 -0.25937796 0.29390398 0.40386838 -0.080288395 0.3247969 -0.12315227 0.49268556 -0.23702337 0.021942712 -0.119939 -0.25575984 -0.09001176 -0.023053274 -0.43534705 0.3806311 -0.033080433 -0.11628431 0.3265368 0.34934896 0.0222264 -0.009345541 0.014220185 -0.09422224 -0.19333522 -0.15381996 0.020278921 0.20509255 -0.026188986 -0.31457147 -0.019687215 0.29744163 0.38374266 0.09930093 0.07721645 -0.074085504 -0.17103234 0.30017748 -0.15742166 0.00802273 -0.29669538 -0.006448703 0.030098444 0.17079404 -0.17058253 0.15326172 0.13312104 0.1553841 0.020501407 -0.22794476 0.026874304 -0.02264166 -0.37085754 0.016007433 0.07794682 0.2759118 -0.3487375 -0.620761 0.37343687 0.1523594 0.24426669 0.20777333 -0.120628305 -0.31844643 0.40580583 -0.23120733 -0.014916757 -0.22174819 -0.29627463 0.43261132 0.041624803 0.4331032 -0.06792483 -0.36532077 -0.7514341 -0.48348713 -0.15935726 -0.089877404 -0.18958867 -0.19662562 0.086237006 -0.02464403 0.012748311 0.14832132 0.059070874 -0.02340951 0.28783754 0.1809832 0.46227676 0.20924732 0.19528195 0.13338667 0.20595017 -0.07871474 0.5460041 0.1584736 0.0518609 0.1794416 -0.3353034
3903711492 0.4358678 0.3854144 -0.143219 0.12412214 0.097101554 -0.101359434 -0.21736689 -0.098533794 -0.044241134 -0.13811363 -0.062132895 0.19722839 0.13056284 -0.062908664 0.53025126 0.26512906 0.6075661 0.015880335 0.28699473 0.012304897 -0.182494 0.030223176 0.16635093 0.40485153 -0.16147709 0.09695144 -0.12570387 -0.10345253 -0.35557643 0.20757955 -0.17060839 -0.13018642 -0.04662447 -0.19767374 0.33810985 0.011125277 -0.06971128 -0.32426268 0.32306927 0.38471818 0.2028843 -0.109925784 0.19372587 0.205413 0.097197264 0.013983082 0.2126812 -0.24147815 -0.14348695 0.06270017 0.19207808 0.56377274 -0.49183568 -0.0026718024 0.26611722 -0.38774434 0.08525001 -0.34895653 -0.1406257 0.23913328 -0.35263458 0.07169727 0.04453104 -0.2067563 0.18071471 -0.14513186 -0.3035052 -0.06867951 0.028427526 -0.24561219 0.0024528347 -0.18362327 0.12484582 0.11159548 -0.2232264 -0.047526762 0.35875964 -0.09312984 -0.065358825 0.032919582 0.30773568 0.12195778 0.19764228 -0.05262715 0.0013371778 -0.00021089063 -0.17304821 0.036742542 -0.439649 0.28028652 0.069392405 -0.06976613 -0.28091973 -0.031037 -0.24597816 -0.06735265 -0.37815207 0.50326747 -0.30297655 0.3693991 0.4096949 -0.2719205 -0.080047876 -0.4426511 0.101837166 -0.4200951 0.04218994 -0.06264384 -0.21056779 -0.38095725 -0.06514035 0.3858763 -0.20628588 0.03778781 0.11073585 0.02057358 -0.3675999 0.23963928 0.43117803 0.38838986 0.14939603 0.36214498 0.4422729 -0.15000819 -0.40801567 -0.099359564 0.12784962 -0.20646304
2732654311 0.32741913 -0.11761814 -0.5236975 0.2780698 0.0770939 -0.20576423 -0.2410975 -0.15243101 0.1268725 0.17438972 0.54204357 0.031546287 0.016308442 0.2320322 0.0995462 0.37964028 0.37432274 -0.10458153 0.17044422 0.28830296 0.12110285 0.17810386 -0.1068162 -0.2892465 -0.11126852 0.20763873 -0.12751852 0.5564415 0.81756604 -0.42649245 -0.0615317 -0.059238568 -0.009063572 -0.25548613 0.27637511 -0.274346 0.5128739 -0.08493209 -0.15046781 0.09141836 -0.017320761 0.0044124327 -0.07805001 -0.27678445 0.41029704 0.07335298 -0.3255714 0.10292398 0.18240128 0.07856921 -0.022960909 -0.44611993 -0.40968013 -0.26171166 -0.3341946 0.33425358 -0.03594092 0.032814298 -0.14005463 0.0070291036 -0.0054204706 0.40379465 0.23566477 0.042316746 0.17541051 -0.052442074 0.14563966 -0.11741945 0.24104811 -0.20186538 0.18630546 -0.042960532 0.28893018 0.0721026 -0.12849893 0.15235403 0.28888598 0.20554169 -0.31463975 0.03542294 0.123176746 -0.2655381 -0.14022781 0.036362454 0.28328425 -0.14828917 -0.36554706 0.168859 0.36149216 0.29804918 0.11002223 0.15330027 -0.24953102 0.0010438195 -0.27343768 0.13830651 0.07003979 0.16275036 0.48734322 0.31971323 0.25598797 0.086854465 -0.18407331 -0.5945406 -0.34852296 -0.011767456 0.26303434 -0.49665895 0.11670729 0.20279571 -0.32951155 -0.12205635 0.02859209 0.0066091577 -0.15400591 0.29190135 0.18189223 0.29737878 0.0776356 0.18143663 0.049747776 -0.045001432 -0.21418954 0.4265871 0.02804832 -0.0037489615 0.009629475 -0.25887507
65848412 0.06367527 -0.29211864 -0.2774171 0.069069326 0.08279196 -0.20872375 0.049037647 -0.16902591 0.22291884 -0.16627927 -0.017980706 0.011022221 0.019197747 0.02308509 -0.22772701 0.15693168 0.077514574 -0.22708677 0.19265498 0.3411922 0.06766755 -0.27962747 -0.027185772 0.011363949 0.22281694 -0.18834382 -0.50350153 -0.09208352 0.21478261 0.045787 0.07917413 0.13840687 -0.23031574 -0.14068393 0.024693761 0.16613524 0.034748413 -0.45087996 0.59564614 0.22768097 0.030578261 0.047029763 0.1317803 -0.110656746 0.28488672 -0.44048426 -0.18339029 0.0386796 0.04821327 0.04766276 -0.29234788 -0.05584373 -0.36176723 0.2656508 -0.1674828 -0.70931524 -0.14239204 -0.31123394 0.012612059 -0.15962686 -0.090725034 0.08341524 0.29020095 -0.25492415 0.085378855 0.28423038 -0.08143984 -0.3013949 -0.026017254 0.24780172 0.14585432 -0.2254768 0.4355791 -0.08584591 -0.29937023 0.050272595 0.7448135 -0.07821062 0.41393515 -0.28622094 -0.05092317 -0.0636542 0.2312101 0.03826577 -0.30238461 0.045347575 0.10887811 -0.02368121 -0.15718614 0.10734832 0.24883653 -0.12318072 -0.1880979 0.2731482 -0.17924498 0.3648404 -0.30817 0.38997462 -0.09063868 -0.13766475 0.20032334 0.046163417 0.13133755 -0.5004401 -0.4080975 -0.21744895 0.2235205 0.31019178 0.07111847 -0.4434731 0.13726237 0.28038245 -0.026048299 -0.07395472 -0.10005955 -0.46202832 -0.34846216 0.0012845823 0.36940795 0.47322378 0.17635965 0.37536508 0.3210305 -0.15117985 -0.37057388 0.06606738 -0.22703497 -0.08688087
850056460415455232 0.43057352 -0.26731363 -0.35405785 0.34298116 0.11332075 -0.44819382 -0.35173574 -0.040038224 0.19127688 0.1340046 0.5334536 -0.1681616 -0.19013098 0.50173014 0.13294183 -0.10521547 0.07344235 -0.1123016 0.2598403 0.45833096 -0.0941093 0.40081373 0.15820019 -0.09215982 0.24394362 0.043619107 -0.20620435 0.034055933 0.3530845 -0.13028862 -0.35192695 0.29930902 0.2534896 -0.10800862 0.19079486 -0.062424216 0.16892806 0.022445641 0.40502068 -0.15868893 -0.22173056 0.08513226 0.0015420435 -0.4761859 0.040025562 0.023980474 -0.39259058 0.037637223 0.17401922 0.05941179 -0.37665752 -0.17888549 -0.53498244 -0.39543414 0.009991721 0.005021753 -0.22444437 -0.14908443 -0.29910067 -0.012066227 0.14079408 0.32029623 0.18818827 0.19648598 -0.12178459 -0.18288592 0.1668621 -0.25878257 0.17559685 -0.19537069 -0.07517671 0.03512218 0.19088693 -0.36716267 -0.012767072 -0.00242939 0.42467952 0.37419862 -0.16500326 -0.073104 0.00544607 -0.20572706 -0.055843685 -0.20285384 0.49703935 -0.4464722 -0.5809822 0.3127368 0.49094382 0.31002337 0.052944984 -0.18862936 -0.3924918 0.13921465 -0.3346597 0.22351316 -0.30172497 -0.2234776 -0.0360397 0.1551263 0.456085 0.047239907 -0.27503592 -0.5877974 -0.38527662 -0.05132053 -0.11189185 -0.06760254 -0.007973806 0.16693336 -0.21101075 -0.025307236 0.010223312 0.33270147 -0.062498216 0.30220598 0.27317634 0.608359 0.17725626 0.28660962 0.15473296 0.46952832 -0.17463978 0.31221375 0.2896047 0.09656362 0.25336945 -0.3704573
782047131028819968 0.47547284 0.1616391 -0.23830357 0.15006387 -0.43968076 -0.11411274 -0.065499276 0.11883448 -0.15461451 0.3802432 0.14751922 -0.14636613 0.2100671 0.03590501 0.22174016 -0.12747455 0.12450724 0.16990894 0.27932045 -0.0707376 0.10228457 -0.11121946 -0.15318333 -0.08111333 -0.077449724 0.24335478 0.24167122 0.056301024 -0.19162294 0.257733 0.5396288 0.084213495 0.22242427 -0.2406747 0.12572469 -0.18136054 -0.038169447 -0.060958833 -0.10449935 -0.21967128 -0.30212754 0.10857031 -0.00461643 0.058980465 0.0817506 -0.2301436 0.13437678 0.24035385 -0.22612762 0.12457501 0.01632027 0.03636555 -0.3613454 0.021670518 -0.1026934 -0.32178703 0.38224804 0.13161737 -0.14772233 -0.019066185 0.06629088 -0.08739047 -0.019554723 -0.55125153 -0.104952395 0.14041844 0.17872424 0.15042025 0.27410728 0.04204485 -0.0441532 0.17513223 0.058159463 -0.032858104 -0.1969894 -0.77443403 -0.07549686 -0.025741214 0.0627322 0.12976608 0.06617123 0.051887494 0.23374441 0.11466492 -0.26825795 0.22517075 -0.028686503 0.2596471 -0.08100725 -0.034098446 0.1386579 0.07102318 -0.5183093 -0.21732514 -0.18948168 0.1715725 -0.45157364 0.090162285 -0.23639451 0.24402447 0.1517424 -0.12589367 -0.50942475 -0.40105182 -0.07308836 -0.29012227 0.10195101 0.16551518 -0.14321357 -0.16502593 0.4348028 -0.23071493 0.10219102 -0.017769367 0.09934293 -0.26263908 -0.14517032 0.25602064 0.47157583 0.4463115 0.040960245 0.6054155 0.26475596 -0.34699273 -0.6317787 -0.21917008 -0.122583725 -0.36931828
140802874 0.39809835 0.29472932 0.012521805 -0.2554027 0.15487398 -0.1875525 -0.10707208 0.30583683 0.28858006 0.21916229 -0.019690657 -0.23142289 0.1923645 0.1408664 0.32423714 0.23245761 0.31280553 -0.25844896 0.25126413 -0.049882185 -0.075538404 -0.13915917 0.22533096 -0.3069144 -0.09576108 0.017174594 -0.35619593 0.13258564 -0.057415273 0.010198265 -0.10300385 0.04681305 0.32098168 -0.57150173 0.061433148 0.11399922 -0.35800827 -0.19855905 0.20420557 0.2759769 -0.22375104 0.20247695 0.44223556 -0.01330716 0.012807026 -0.20517525 0.217716 -0.073539555 -0.14224851 -0.024444582 -0.116561964 0.16950132 -0.48448586 0.3404661 0.21361992 0.038294002 0.23929392 -0.30098602 -0.31913322 -0.08305889 0.16528578 -0.11620209 0.2892828 -0.3439896 0.26379853 0.08376816 0.0076081557 -0.19631597 0.09098137 -0.018884644 -0.29772884 -0.25478318 0.013178207 0.18649496 -0.11321027 -0.18564941 0.1994925 -0.08987159 0.3898812 -0.089387335 -0.014021647 0.21313779 -0.069902174 0.006327304 0.02554407 0.2793421 -0.20579353 0.37668005 -0.024698025 0.30734622 0.20237693 -0.29134896 -0.09675897 0.09470957 -0.17479675 0.042753514 -0.41061077 0.011995314 0.25076333 -0.48061496 0.2747959 -0.43645427 -0.15318726 -0.5517096 -0.029115189 -0.23398548 0.24714622 -0.15144771 -0.025063818 -0.27355865 -0.024755403 0.047403954 -0.26986715 -0.10491178 0.22947232 0.11461125 -0.19920617 0.11148083 -0.047575828 0.5162933 0.09687897 0.25145733 0.1032984 -0.11645488 -0.41427234 -0.035482187 -0.056863394 -0.20551808
915569119147180033 0.20211858 0.27519634 -0.03973884 0.1378756 -0.4846882 0.080349244 -0.09709821 0.51881623 0.1340479 0.0003695944 0.18631975 -0.08468748 0.3632536 -0.47518167 -0.059597313 0.116062015 0.29504028 -0.13590084 -0.101424575 -0.19434178 -0.3033466 0.11159339 0.27765945 0.06592406 0.06252239 0.21518569 -0.024559453 0.27200082 0.3758328 -0.22285004 0.22624364 0.34216735 -0.27410993 -0.57194626 -0.12801233 -0.0955588 -0.15832351 0.05074228 0.04098198 0.23107134 -0.042412315 0.2408416 -0.083321676 -0.027090842 0.2208181 -0.40137374 -0.009377837 -0.2145426 -0.058781452 -0.25908342 -0.3470942 -0.028772851 -0.11559757 0.16412807 -0.4077608 -0.29609653 0.45689857 -0.4118609 -0.18557909 -0.008642551 -0.2942488 0.1806365 0.060289364 -0.20966004 0.34496698 0.20442805 0.041829225 -0.032527603 0.13775283 0.008565709 -0.13908887 0.16629395 0.046674464 -0.046417985 -0.13130663 -0.26023456 -0.06966442 -0.27381897 0.04137912 0.16713944 -0.088206895 0.017505895 0.48938397 0.25032556 0.00012902297 0.037320863 -0.17053825 0.3113322 -0.2356304 0.06171186 0.4232072 0.29146174 -0.53804624 0.15692753 -0.55629885 0.18455735 -0.38511473 0.32340482 0.23614734 0.09294905 0.11859973 0.36150378 -0.27414384 -0.21594988 -0.0009044291 -0.29879728 -0.17414513 0.14015442 0.10767299 -0.049895372 -0.06537975 -0.032074697 -0.19757162 0.1380153 0.22548185 0.18552575 0.49710706 -0.19543941 0.07291045 -0.107417546 0.24343279 -0.037314422 0.19960004 -0.08429511 -0.4326519 0.20642138 -0.34828943 -0.2013493
356808361 0.52609533 -0.23598637 -0.19647571 0.16758555 0.3548185 -0.1698139 0.08885211 0.15037681 0.028169215 0.4485707 0.33506402 -0.29641595 0.27469996 0.16207649 -0.2340644 0.4166813 0.19648965 0.27338856 0.1623137 0.317824 0.029774347 0.2164002 0.037469465 -0.038790166 -0.3560979 -0.12280658 0.16719098 0.39788517 0.19282666 -0.18763205 -0.058647785 -0.059486162 0.24711843 -0.09505954 0.43364787 -0.29848084 0.1311227 -0.29499355 0.031837672 -0.25190663 0.3290854 -0.14316842 0.20278157 -0.48821443 0.5497089 -0.05112468 -0.34829468 -0.1494949 0.04708816 0.02843931 0.20063299 -0.11766963 -0.07371236 -0.1569435 0.11457915 0.3501407 0.0081711495 -0.060172345 0.25736952 -0.05270581 0.18874292 0.044237096 0.31923646 -0.16966003 0.027328692 -0.03714106 0.028237743 -0.27375236 -0.082247704 -0.15213479 -0.14826964 0.30048984 -0.01023909 -0.55279654 -0.17185695 0.06738186 0.2736851 0.18928081 0.2009227 0.067393176 -0.11888547 -0.10221124 -0.3085127 -0.059707135 0.2964336 0.058957607 -0.49857795 0.46404108 0.1646481 0.4694829 0.38587904 -0.07374415 -0.358181 0.5023969 -0.5781816 -0.21560608 -0.19320063 -0.39680448 0.036949314 0.026986672 0.7256602 -0.13595255 -0.42750478 -0.37223184 -0.24303603 0.09327223 -0.086094506 -0.5256317 -0.30208936 -0.27671993 0.0095319515 0.27018046 0.021860128 0.2104954 -0.25271645 0.26360986 0.344988 0.51686823 0.15086983 0.24416363 0.2840675 0.31387377 0.07259017 0.42443305 0.15636283 0.16368888 -0.2540588 -0.64176536
221363348 0.49846426 0.19320004 -0.15485255 -0.21422823 0.094371505 -0.0059810686 -0.2939187 -0.4306384 0.07682985 -0.2688599 0.2038875 -0.24857366 -0.092703365 -0.12545179 0.3014517 -0.12552898 -0.14645225 -0.053786937 0.31898764 -0.0155291185 -0.032366484 -0.29449213 0.22864278 -0.1306961 -0.061077986 0.12787056 0.069899864 -0.00037332752 0.09910469 -0.21604677 -0.067413054 -0.06779413 0.18875594 -0.14616007 0.038908817 0.080400154 -0.042694513 -0.2701918 -0.1222664 0.16825543 0.10292709 0.2102582 0.39600334 0.23162661 0.15221927 -0.078915484 0.040034804 -0.2628601 0.27465695 -0.0049542827 0.19006082 0.0340843 -0.3428609 0.11098935 -0.11277772 0.013123809 0.06466265 -0.2674718 -0.23584849 -0.05190059 0.1945931 0.25514454 0.31613684 -0.037128605 0.2832693 -0.026572123 0.25838375 -0.32147548 0.21076208 0.21270372 -0.18528092 -0.12796001 0.066460475 0.0056103924 0.0967163 0.00037651332 0.4246684 0.34058002 -0.11033912 -0.47996375 -0.35918042 0.124292195 -0.3014922 0.08657289 0.102411404 0.032495562 -0.32063752 0.39264715 0.10651637 0.23469497 -0.038266953 -0.14115635 -0.5258373 -0.19586362 -0.3382467 0.017078832 -0.0059885844 0.033020426 -0.03970144 -0.43070295 0.47432068 -0.04349681 0.26612622 -0.39815676 -0.10437045 0.26685578 0.19248773 0.057706106 -0.2520406 -0.14954178 0.050207466 -0.2045552 -0.34966975 0.27855444 0.301022 0.34566948 -0.4186489 0.22150989 0.20901844 0.59091187 0.086471334 0.5444827 0.15164964 -0.27369654 -0.41161376 0.23091237 -0.05881748 -0.088409066
154857864 0.58899605 -0.30399358 -0.4230671 0.29984376 0.05905849 0.27340633 0.007651327 -0.19422849 0.44413468 0.08034332 0.30507806 -0.075388364 0.46672967 0.2251179 -0.1347532 -0.042589534 0.23992682 0.2048521 0.31475472 0.1654957 0.29038942 0.004269682 0.1347266 -0.1295343 -0.009079175 0.01664285 -0.047144324 0.55963314 0.3692071 -0.042808767 -0.21648715 0.26562664 -0.18913484 0.102797136 -0.008329162 -0.1602428 0.52450645 -0.105822675 0.062045548 0.3867745 -0.1363989 0.2800484 -0.099061586 -0.47587675 0.3095312 0.02250014 -0.6484776 0.40653124 0.19731243 0.28062278 0.12079723 0.051932488 0.21650165 0.12756681 -0.197398 -0.069443054 0.03860649 -0.27297887 0.13719915 0.40881252 -0.084994406 0.27686566 0.336167 -0.33867738 -0.2629573 -0.18819818 0.31376484 -0.57176095 -0.2965094 -0.17025498 0.28679082 -0.23002698 -0.007285308 -0.2706601 -0.060371615 -0.054934647 0.12529081 0.07311981 0.13716356 0.32989222 0.22257942 -0.46359104 -0.24995406 -0.16744854 0.07114949 0.029795954 -0.08277724 0.116206065 0.07466757 0.20788495 0.19622545 -0.43775672 -0.5319541 0.16885762 -0.04075332 0.34859222 -0.05679312 0.2031658 -0.37136683 0.26506206 0.36673823 0.008513806 -0.34791592 -0.5555763 -0.00068659417 0.15420684 -0.059630565 -0.106264465 -0.16965622 -0.04193915 0.025925387 0.3115925 0.028540488 0.21940763 -0.121033765 0.21100107 0.29657236 0.13953224 -0.007848763 0.38723812 -0.014418344 0.010052237 -0.011890167 -0.0515652 0.011359331 -0.41703165 0.21159808 -0.089710064
2938482822 0.1734366 -0.12399865 -0.16856785 0.008749444 -0.19457732 -0.3281859 0.15148154 0.08002766 0.030151723 0.1804552 0.52767974 -0.34955207 0.5411852 -0.22964099 0.2990676 0.56335324 0.53251463 0.011815397 0.09154124 -0.32451078 0.00896319 -0.05528294 0.17718607 0.1673157 -0.21320325 -0.17097855 -0.1645392 -0.3090549 0.29362467 -0.18299443 0.26124442 0.048402365 0.0018124699 -0.09601017 0.3125663 0.08084548 -0.05814148 -0.12361774 0.22828738 -0.021153755 -0.13169655 0.10651027 0.4584075 -0.106579274 0.647176 -0.40878943 -0.12733606 0.068451226 0.2615591 -0.13253458 0.032438174 -0.06697236 -0.24377447 0.10812658 -0.019881092 -0.38651505 0.30504817 -0.23751028 0.04372369 0.3249128 -0.22009185 0.19203582 0.22031413 -0.13347647 0.3036475 -0.017813645 -0.12885411 0.10867145 0.3102535 -0.37303793 -0.51613045 -0.42120972 0.34662315 -0.2625394 0.35279256 0.26703918 -0.30556008 0.11663735 -0.29887092 0.14640187 0.16722567 0.37369096 0.22278245 0.19550228 -0.1458567 0.18708096 -0.43458697 0.38117242 -0.17149591 0.047383383 0.4329437 0.22109616 -0.12792905 0.46887246 -0.07307078 0.27336603 -0.13434826 -0.20598261 0.38956562 -0.34748697 0.26764545 0.039520793 -0.18042181 -0.23823999 0.36132658 -0.59817713 0.19440548 0.21571895 -0.07431908 -0.15252174 -0.25919652 0.11892338 -0.026139718 -0.20191266 -0.05276822 -0.24458791 0.044640668 -0.094839245 0.2755425 0.47329876 0.24666315 0.41773543 0.40706828 0.06629677 -0.18026324 0.18914773 -0.08916281 -0.17064631
465305138 0.26637363 0.05034235 -0.22620416 -0.2121483 -0.2594867 -0.18745343 -0.0044263406 0.27670673 -0.043154124 -0.06660609 0.13959919 0.1200909 0.2519091 -0.09974856 -0.041845594 0.025075622 0.24794757 -0.08870695 0.020892074 0.15956889 -0.27949163 0.4246447 -0.45988283 0.31077746 0.19198714 -0.61366785 -0.3019342 0.40717876 0.25913233 0.024064213 0.20046793 0.20248482 -0.20232306 -0.22696944 0.1518433 0.033248764 -0.5471091 -0.4146164 -0.101461984 -0.16672295 0.048164815 -0.021141762 -0.25117773 -0.3322386 0.10234867 -0.43152094 -0.039046478 -0.36059132 0.33824068 -0.012623736 -0.17766671 0.5519233 -0.43868792 0.24450321 -0.20271876 -0.26375803 -0.14911108 -0.2492374 -0.1417106 0.18645647 -0.04540246 0.07508669 0.27205253 -0.1181708 -0.011147082 0.19993871 -0.050979912 0.09616149 0.39088157 0.34382835 -0.22176282 0.31403914 -0.17536706 -0.13375942 -0.46050522 -0.15597956 0.4401006 -0.30452663 0.34814692 0.0995851 -0.09782115 -0.23855275 -0.099591404 0.047014873 0.16572468 0.4640572 -0.1905407 0.38094813 -0.012497051 -0.078293145 0.07979633 0.38054794 0.00069313886 -0.32029268 -0.06416434 -0.08968515 -0.24756394 0.13655783 -0.051429894 -0.18152308 0.4694895 0.0030393458 0.046346385 -0.2629998 -0.14103067 -0.1674512 -0.07385752 -0.14010425 -0.1331556 0.22169289 0.08023781 0.24820915 -0.35126567 -0.321394 -0.018550206 -0.057273436 -0.23578298 0.020986535 0.19900844 0.4610332 0.018044464 0.23767652 0.19391292 0.118404165 -0.22186111 -0.0589224 -0.14688066 -0.30761242
917407884513644544 0.15192889 0.4150571 -0.06655313 -0.08864169 -0.02093678 -0.42703322 0.15634859 0.13808788 -0.19616096 -0.097793594 0.21363533 -0.11087951 0.2661716 0.0913151 0.27852878 0.7516148 0.46417248 0.063057415 0.012555164 0.15163389 0.073305614 -0.02804804 0.053149596 0.03138237 0.09818708 -0.07938584 -0.08482478 0.05435181 0.11222079 0.1562793 0.25546128 -0.28482336 -0.023304531 -0.30627182 0.09189062 0.07586204 0.022213386 -0.26462173 -0.061620403 0.20148833 0.18947874 -0.016208172 0.2430157 0.0643909 0.35058805 -0.26104337 -0.11998623 -0.004482494 0.19531018 -0.3221719 -0.20703344 0.08608418 -0.20925039 -0.07665684 0.008363574 -0.3568254 0.38329607 -0.53739643 -0.007044695 0.07049093 -0.04185951 0.33121583 0.14406596 -0.18279393 0.1761129 -0.07211447 -0.2286197 0.3019847 0.38283548 -0.15368176 0.09791195 0.23475319 0.34742406 -0.11712307 -0.21994612 -0.11324719 -0.2906231 0.21645017 0.25797662 0.3719885 -0.019024663 -0.18582425 0.054138947 0.33019164 -0.036813095 0.27239397 -0.24124342 0.096271604 -0.009899784 0.2224134 0.30432656 0.017536875 -0.47798905 -0.017456228 0.08767997 0.043238614 -0.27342162 -0.29175895 0.3560585 -0.25517192 0.23254617 -0.011027022 0.04265336 -0.28502914 0.22948538 -0.022898728 0.0026307253 0.5561476 0.3210024 -0.18903303 -0.42536655 -0.0034570782 -0.029154852 0.021254685 0.036431905 -0.13622299 -0.2851704 -0.20086364 0.35265276 0.2869592 0.17712961 0.5925025 0.48094603 0.06230241 -0.35177308 0.24314973 -0.19675826 -0.27661413
845575243548819456 0.29118645 -0.24981932 -0.3399001 -0.06970175 -0.2150514 -0.034261484 0.044584442 -0.31110734 0.028895987 0.15936288 -0.04107789 -0.17353436 0.20524813 0.015484705 0.10764771 0.154596 0.36919183 -0.14070675 0.30975866 -0.17422554 -0.07490009 0.1145559 0.07722024 -0.062571324 0.106952265 -0.12196608 -0.31975824 0.48578438 -0.19927403 -0.44317278 0.41882426 0.14607972 -0.051484384 -0.33020893 0.23429728 0.11491091 0.53230435 -0.55499846 0.122264415 -0.026784267 0.003012021 -0.01708557 -0.19523956 -0.15855499 0.09450046 -0.18648179 0.1535622 -0.109678894 0.23021057 0.10519483 0.3285321 0.093559094 -0.40104097 0.19806309 0.22001296 -0.35066384 -0.32252407 -0.7700088 -0.28005862 0.1770781 -0.15109418 0.05105974 -0.088857524 -0.022112472 0.30141178 -0.024866145 -0.17987403 -0.048984446 0.26500905 0.1161102 0.032421876 0.039529234 0.32359257 -0.32132545 -0.35749614 0.09004825 0.22301294 -0.4316056 0.11698567 0.11790079 -0.28895906 -0.116618045 0.013033527 0.04835767 -0.2224085 0.1458503 0.08631283 0.018385166 -0.48186615 0.23992129 0.11475149 -0.029717907 0.08256996 -0.111026645 0.17379168 -0.09286031 -0.35483402 0.24071522 -0.047599383 -0.24342364 0.36023805 0.03355195 -0.14364591 -0.36730012 0.14418979 -0.28496274 0.060820978 0.42517123 -0.09775302 -0.119884595 0.20537542 0.04032617 -0.4360531 -0.0024180363 0.36980408 0.1369646 -0.309485 0.23104261 0.5062763 0.20749214 -0.023605743 0.035256833 0.271831 -0.35647586 -0.7081867 0.12505424 0.033763457 -0.08739623
2989097447 0.33757174 0.3059522 -0.59265363 0.036734853 0.10735603 -0.29512796 -0.09902329 -0.31438604 -0.016607936 0.023650007 0.2929218 -0.02397369 0.101556085 0.13453704 0.122917265 0.17305292 0.021956572 0.39973325 0.23923807 0.017014595 -0.088198535 -0.26146924 0.22251894 -0.378862 -0.029284108 0.009088374 0.049311236 0.27919236 0.22041155 0.052418422 0.42496994 -0.11347471 -0.07704086 -0.24341612 -0.25938907 0.2536761 -0.07843784 0.33761042 -0.05336992 -0.0013320209 -0.26356077 -0.158457 -0.11852782 -0.20002557 -0.015701195 -0.49296424 -0.0902974 -0.048530065 0.36078012 0.11845838 -0.1370828 0.16351311 -0.3115282 -0.21619606 0.14156583 0.048684493 -0.005427686 -0.8845192 -0.44620776 0.4895551 -0.22038358 0.0851838 0.5296194 -0.35472667 0.32972726 -0.15051527 -0.1384859 -0.017858714 0.14501251 -0.1375547 0.1044524 0.22621377 0.27637878 0.010443085 -0.18639049 -0.22473262 -0.030450778 -0.11009908 0.14304647 0.046795286 -0.058729693 -0.2091405 0.5244161 0.10003984 0.05594285 -0.24973121 -0.34082976 -0.12092808 -0.25147513 -0.111667715 0.16910255 -0.024022019 -0.038073793 -0.304397 -0.10991728 -0.100600526 -0.16078909 -0.17510307 -0.34988722 -0.4755022 -0.22746468 -0.24325901 -0.32084045 -0.13060755 0.011108851 0.022326604 0.21655168 -0.10065609 -0.048217166 -0.021543063 -0.2134257 -0.14732002 -0.3179582 0.1319636 -0.020531949 -0.3380677 -0.27096173 0.46906936 0.22531304 -0.13812609 0.23840706 0.060082663 -0.01635503 -0.38993788 -0.59991664 0.20599689 -0.16400285 0.036154952
2585222840 0.1512136 0.37137556 0.0729663 -0.25089538 -0.19026043 -0.23547563 -0.038018752 0.17941238 -0.08704252 -0.038330156 0.008043494 -0.19200599 -0.12404405 -0.22661436 0.059886176 0.1904277 0.4286739 -0.02396401 0.2847811 0.067499526 -0.20246617 -0.151753 0.032069284 -0.07282444 -0.21737248 -0.028922245 -0.15937051 0.39700967 -0.012149719 -0.344248 -0.06905319 -0.29571182 -0.2941207 -0.35276398 0.18887168 -0.061098687 0.021218564 -0.16220246 0.15120384 0.0726237 -0.43601573 0.08789936 -0.22425593 -0.042683527 0.1738911 -0.16384342 0.09789496 -0.05047588 0.12859808 0.0846879 0.037685186 -0.15146403 -0.4955269 0.19526778 0.021135343 0.14127013 0.3025061 -0.3668468 -0.1713886 -0.10235091 0.11334834 0.04264203 0.32472104 -0.2624825 0.3303383 0.0033193608 0.43924522 -0.024300288 0.1829354 -0.2238161 0.038486756 0.06955143 0.011461801 0.32860002 0.17740259 -0.3510632 0.077608496 0.33838916 0.035530414 -0.2683427 -0.124225736 -0.17515841 -0.14352815 0.088987865 -0.10669502 0.30706146 -0.19461486 0.5102087 -0.15059806 0.47942773 0.20290539 0.060416 -0.60129505 0.07250546 0.2595985 0.2827735 -0.16784027 -0.049687974 -0.013957357 -0.109271996 0.33813447 0.22097376 -0.115410365 -0.49036217 -0.116792895 -0.17245236 -0.15950063 -0.124026455 -0.14334525 0.17890058 -0.066087 -0.1427928 -0.26528698 0.050014254 -0.12802969 0.029065644 -0.42131522 0.19583338 0.51013803 0.4636584 0.03271071 0.04965648 -0.33234137 -0.111278236 -0.1909035 -0.027736844 -0.23548155 -0.20157665
1854575396 0.037950967 0.11455383 -0.47545815 0.10391353 0.15463638 -0.20147406 -0.12948953 -0.15355106 0.46370184 -0.12120582 0.24412183 -0.3514192 0.1115184 -0.33696428 0.28670108 -0.26478368 0.14670941 -0.70005435 0.28053242 -0.13576701 -0.21478166 -0.00891536 0.46342972 -0.22067535 -0.24369074 -0.14035966 0.041942935 0.31496042 0.24253322 -0.31093392 0.19657996 0.19672538 0.10296837 -0.22713156 -0.13449316 0.061914477 0.23029736 -0.09213359 0.2755029 0.05634306 -0.12341864 0.26172566 0.17332274 -0.3162661 0.012456825 0.099163204 -0.6738093 -0.10860871 -0.21437058 0.3851603 -0.22110544 0.09443166 -0.40549868 -0.14167356 -0.027819939 -0.020874292 -0.0021953466 -0.27236333 -0.44013643 -0.12903361 -0.18287264 0.6039516 0.18503496 -0.45701107 0.11159604 0.07563486 -0.010032047 -0.39570573 -0.13152939 0.03422336 -0.35669503 -0.06452857 0.25882939 -0.28611416 -0.13766527 -0.3278396 0.54211193 0.60069644 -0.34717113 -0.51645046 -0.27801785 0.07224248 0.12640972 -0.31877354 0.35546023 0.099964604 -0.37268654 0.27961034 0.25721854 0.12625071 0.26802418 -0.05456622 -0.49251047 -0.2544249 -0.076651044 -0.3931487 -0.586532 -0.08412576 -0.12787226 -0.47979143 0.5819517 0.030650362 -0.09577117 -0.20934871 -0.07743026 -0.01123752 -0.08347414 0.19065785 -0.23360485 -0.0006589611 0.18829314 -0.013454404 0.14030974 0.27438104 0.06681251 -0.07708436 -0.6081153 0.047428694 0.13802573 0.0836379 0.17474128 0.5779465 0.15827395 -0.18471909 0.121296294 -0.22559622 0.12092357 -0.11639007
